<?xml version="1.0"?>
<opencv_storage>
<stage5>
  <maxWeakCount>100</maxWeakCount>
  <stageThreshold>-1.5600847005844116e+00</stageThreshold>
  <weakClassifiers>
    <_>
      <internalNodes>
        0 -1 7539 3.6738909780979156e-02</internalNodes>
      <leafValues>
        -2.2204536199569702e-01 2.7634659409523010e-01</leafValues></_>
    <_>
      <internalNodes>
        0 -1 112806 3.4273103810846806e-03</internalNodes>
      <leafValues>
        -7.0597901940345764e-02 4.1449019312858582e-01</leafValues></_>
    <_>
      <internalNodes>
        0 -1 119598 2.9316879808902740e-03</internalNodes>
      <leafValues>
        -6.7211098968982697e-02 4.9353143572807312e-01</leafValues></_>
    <_>
      <internalNodes>
        0 -1 105080 2.4617956951260567e-03</internalNodes>
      <leafValues>
        -7.2925075888633728e-02 3.0286520719528198e-01</leafValues></_>
    <_>
      <internalNodes>
        0 -1 150009 -3.4172594547271729e-02</internalNodes>
      <leafValues>
        2.7064639329910278e-01 -9.4212442636489868e-02</leafValues></_>
    <_>
      <internalNodes>
        0 -1 120941 2.1892124786973000e-03</internalNodes>
      <leafValues>
        -6.8271219730377197e-02 2.5828021764755249e-01</leafValues></_>
    <_>
      <internalNodes>
        0 -1 120941 -1.6919780755415559e-03</internalNodes>
      <leafValues>
        2.1311751008033752e-01 -9.9282495677471161e-02</leafValues></_>
    <_>
      <internalNodes>
        0 -1 126864 -3.5602366551756859e-03</internalNodes>
      <leafValues>
        5.0534439086914062e-01 -2.3064790293574333e-02</leafValues></_>
    <_>
      <internalNodes>
        0 -1 126864 5.6164531270042062e-04</internalNodes>
      <leafValues>
        -1.0238433629274368e-01 1.9277916848659515e-01</leafValues></_>
    <_>
      <internalNodes>
        0 -1 131519 -2.1373229101300240e-03</internalNodes>
      <leafValues>
        3.2839268445968628e-01 -4.9029793590307236e-02</leafValues></_>
    <_>
      <internalNodes>
        0 -1 13392 -1.0041678324341774e-03</internalNodes>
      <leafValues>
        -3.2667371630668640e-01 5.0401594489812851e-02</leafValues></_>
    <_>
      <internalNodes>
        0 -1 126864 -5.3386506624519825e-04</internalNodes>
      <leafValues>
        1.8642626702785492e-01 -8.0791287124156952e-02</leafValues></_>
    <_>
      <internalNodes>
        0 -1 94727 6.5934918820858002e-03</internalNodes>
      <leafValues>
        -5.0827819854021072e-02 3.1864178180694580e-01</leafValues></_>
    <_>
      <internalNodes>
        0 -1 131806 -3.6114854738116264e-03</internalNodes>
      <leafValues>
        4.6415027976036072e-01 -3.2492943108081818e-02</leafValues></_>
    <_>
      <internalNodes>
        0 -1 13296 -1.0731243528425694e-03</internalNodes>
      <leafValues>
        -3.0218681693077087e-01 5.0404619425535202e-02</leafValues></_>
    <_>
      <internalNodes>
        0 -1 112494 1.9179936498403549e-03</internalNodes>
      <leafValues>
        -5.3753215819597244e-02 2.6610860228538513e-01</leafValues></_>
    <_>
      <internalNodes>
        0 -1 111618 1.8193041905760765e-02</internalNodes>
      <leafValues>
        -1.0438535362482071e-01 1.4716729521751404e-01</leafValues></_>
    <_>
      <internalNodes>
        0 -1 104184 8.8631108403205872e-02</internalNodes>
      <leafValues>
        2.4270474910736084e-02 -8.2310545444488525e-01</leafValues></_>
    <_>
      <internalNodes>
        0 -1 11066 1.1123504955321550e-03</internalNodes>
      <leafValues>
        6.5234892070293427e-02 -2.3573219776153564e-01</leafValues></_>
    <_>
      <internalNodes>
        0 -1 120128 -9.8981929477304220e-04</internalNodes>
      <leafValues>
        1.7578132450580597e-01 -8.4593884646892548e-02</leafValues></_>
    <_>
      <internalNodes>
        0 -1 9436 8.9702889090403914e-04</internalNodes>
      <leafValues>
        7.2821624577045441e-02 -2.4605043232440948e-01</leafValues></_>
    <_>
      <internalNodes>
        0 -1 120128 1.9862656481564045e-03</internalNodes>
      <leafValues>
        -6.6506616771221161e-02 2.6555582880973816e-01</leafValues></_>
    <_>
      <internalNodes>
        0 -1 29749 -3.3778280019760132e-02</internalNodes>
      <leafValues>
        2.0366737246513367e-01 -7.0957362651824951e-02</leafValues></_>
    <_>
      <internalNodes>
        0 -1 53557 -1.2218246702104807e-03</internalNodes>
      <leafValues>
        -3.1750935316085815e-01 5.1785159856081009e-02</leafValues></_>
    <_>
      <internalNodes>
        0 -1 119385 2.1540878806263208e-03</internalNodes>
      <leafValues>
        -8.8160224258899689e-02 1.7514009773731232e-01</leafValues></_>
    <_>
      <internalNodes>
        0 -1 112294 -1.6414657002314925e-03</internalNodes>
      <leafValues>
        1.5779313445091248e-01 -1.0626871138811111e-01</leafValues></_>
    <_>
      <internalNodes>
        0 -1 7443 -7.2092469781637192e-03</internalNodes>
      <leafValues>
        -2.8718489408493042e-01 5.0793010741472244e-02</leafValues></_>
    <_>
      <internalNodes>
        0 -1 17410 4.8273004591464996e-02</internalNodes>
      <leafValues>
        -4.7062858939170837e-02 3.2233709096908569e-01</leafValues></_>
    <_>
      <internalNodes>
        0 -1 54929 -9.6543179824948311e-04</internalNodes>
      <leafValues>
        -2.7468103170394897e-01 5.2079584449529648e-02</leafValues></_>
    <_>
      <internalNodes>
        0 -1 124264 1.8410164630040526e-03</internalNodes>
      <leafValues>
        -5.3958546370267868e-02 2.9207837581634521e-01</leafValues></_>
    <_>
      <internalNodes>
        0 -1 110239 2.0189445931464434e-03</internalNodes>
      <leafValues>
        -7.8480981290340424e-02 1.8825884163379669e-01</leafValues></_>
    <_>
      <internalNodes>
        0 -1 117555 -1.9358212593942881e-03</internalNodes>
      <leafValues>
        1.8776217103004456e-01 -8.3001308143138885e-02</leafValues></_>
    <_>
      <internalNodes>
        0 -1 74455 7.0134107954800129e-04</internalNodes>
      <leafValues>
        6.4274057745933533e-02 -2.3849177360534668e-01</leafValues></_>
    <_>
      <internalNodes>
        0 -1 64871 -2.6387788355350494e-02</internalNodes>
      <leafValues>
        -3.5076472163200378e-01 3.6854665726423264e-02</leafValues></_>
    <_>
      <internalNodes>
        0 -1 911 4.1097760200500488e-02</internalNodes>
      <leafValues>
        -9.9714986979961395e-02 1.7169368267059326e-01</leafValues></_>
    <_>
      <internalNodes>
        0 -1 98449 -7.6875914819538593e-03</internalNodes>
      <leafValues>
        2.9833853244781494e-01 -4.8386037349700928e-02</leafValues></_>
    <_>
      <internalNodes>
        0 -1 94145 -1.1463916301727295e-01</internalNodes>
      <leafValues>
        -7.5418269634246826e-01 2.2899955511093140e-02</leafValues></_>
    <_>
      <internalNodes>
        0 -1 113823 -2.6477938517928123e-03</internalNodes>
      <leafValues>
        1.7192073166370392e-01 -7.9819969832897186e-02</leafValues></_>
    <_>
      <internalNodes>
        0 -1 128950 4.9055047566071153e-04</internalNodes>
      <leafValues>
        7.4325621128082275e-02 -1.8182064592838287e-01</leafValues></_>
    <_>
      <internalNodes>
        0 -1 131208 -4.3518505990505219e-03</internalNodes>
      <leafValues>
        5.8813220262527466e-01 -2.5760121643543243e-02</leafValues></_>
    <_>
      <internalNodes>
        0 -1 102707 -4.0972791612148285e-03</internalNodes>
      <leafValues>
        4.1507440805435181e-01 -3.0256524682044983e-02</leafValues></_>
    <_>
      <internalNodes>
        0 -1 114342 -4.0375366806983948e-02</internalNodes>
      <leafValues>
        4.6242731809616089e-01 -2.8156258165836334e-02</leafValues></_>
    <_>
      <internalNodes>
        0 -1 134472 5.2074320614337921e-02</internalNodes>
      <leafValues>
        -6.0218159109354019e-02 2.1302400529384613e-01</leafValues></_>
    <_>
      <internalNodes>
        0 -1 140929 -4.0959563106298447e-02</internalNodes>
      <leafValues>
        2.5020974874496460e-01 -5.8419134467840195e-02</leafValues></_>
    <_>
      <internalNodes>
        0 -1 113336 1.8664733506739140e-03</internalNodes>
      <leafValues>
        -7.6225295662879944e-02 1.7030721902847290e-01</leafValues></_>
    <_>
      <internalNodes>
        0 -1 121346 6.7505321931093931e-04</internalNodes>
      <leafValues>
        6.5489247441291809e-02 -2.0496939122676849e-01</leafValues></_>
    <_>
      <internalNodes>
        0 -1 120136 1.5402021817862988e-03</internalNodes>
      <leafValues>
        -8.8957808911800385e-02 1.5265479683876038e-01</leafValues></_>
    <_>
      <internalNodes>
        0 -1 119647 2.0271714776754379e-02</internalNodes>
      <leafValues>
        3.4256778657436371e-02 -3.7816715240478516e-01</leafValues></_>
    <_>
      <internalNodes>
        0 -1 159196 -2.6503601111471653e-03</internalNodes>
      <leafValues>
        2.8564709424972534e-01 -4.7664094716310501e-02</leafValues></_>
    <_>
      <internalNodes>
        0 -1 72353 -1.4720225706696510e-02</internalNodes>
      <leafValues>
        -4.7118926048278809e-01 2.6349170133471489e-02</leafValues></_>
    <_>
      <internalNodes>
        0 -1 132948 3.5473562311381102e-03</internalNodes>
      <leafValues>
        -3.1982779502868652e-02 4.0633946657180786e-01</leafValues></_>
    <_>
      <internalNodes>
        0 -1 67809 -8.2985199987888336e-03</internalNodes>
      <leafValues>
        1.8072073161602020e-01 -6.6949851810932159e-02</leafValues></_>
    <_>
      <internalNodes>
        0 -1 104746 -2.0368169061839581e-03</internalNodes>
      <leafValues>
        2.6610848307609558e-01 -4.8298399895429611e-02</leafValues></_>
    <_>
      <internalNodes>
        0 -1 153968 -3.0557664576917887e-03</internalNodes>
      <leafValues>
        -3.3914405107498169e-01 4.1172996163368225e-02</leafValues></_>
    <_>
      <internalNodes>
        0 -1 160421 1.9485019147396088e-02</internalNodes>
      <leafValues>
        1.8468890339136124e-02 -5.9530299901962280e-01</leafValues></_>
    <_>
      <internalNodes>
        0 -1 117120 -1.8254736205562949e-03</internalNodes>
      <leafValues>
        1.6655829548835754e-01 -7.5338661670684814e-02</leafValues></_>
    <_>
      <internalNodes>
        0 -1 84695 3.6730640567839146e-03</internalNodes>
      <leafValues>
        -8.8553234934806824e-02 1.6169930994510651e-01</leafValues></_>
    <_>
      <internalNodes>
        0 -1 160465 -1.6640855465084314e-03</internalNodes>
      <leafValues>
        -2.2499065101146698e-01 6.4120501279830933e-02</leafValues></_>
    <_>
      <internalNodes>
        0 -1 21318 -3.8875974714756012e-02</internalNodes>
      <leafValues>
        -4.8273411393165588e-01 2.5069613009691238e-02</leafValues></_>
    <_>
      <internalNodes>
        0 -1 0 -6.4609153196215630e-04</internalNodes>
      <leafValues>
        -2.4151723086833954e-01 4.8755351454019547e-02</leafValues></_>
    <_>
      <internalNodes>
        0 -1 119114 -7.8525692224502563e-03</internalNodes>
      <leafValues>
        2.8187015652656555e-01 -4.7971010208129883e-02</leafValues></_>
    <_>
      <internalNodes>
        0 -1 77510 4.3517556041479111e-03</internalNodes>
      <leafValues>
        -7.0555128157138824e-02 2.0356376469135284e-01</leafValues></_>
    <_>
      <internalNodes>
        0 -1 96167 6.8837828934192657e-02</internalNodes>
      <leafValues>
        2.1663429215550423e-02 -5.9765720367431641e-01</leafValues></_>
    <_>
      <internalNodes>
        0 -1 83032 -3.3225879073143005e-02</internalNodes>
      <leafValues>
        -6.7291623353958130e-01 1.5539727173745632e-02</leafValues></_>
    <_>
      <internalNodes>
        0 -1 25729 -3.6277282051742077e-03</internalNodes>
      <leafValues>
        -3.3228254318237305e-01 3.3275596797466278e-02</leafValues></_>
    <_>
      <internalNodes>
        0 -1 92569 -4.6484153717756271e-03</internalNodes>
      <leafValues>
        1.4406315982341766e-01 -8.6357735097408295e-02</leafValues></_>
    <_>
      <internalNodes>
        0 -1 86729 -1.3009608956053853e-03</internalNodes>
      <leafValues>
        -1.9396851956844330e-01 6.4093306660652161e-02</leafValues></_>
    <_>
      <internalNodes>
        0 -1 87544 -9.7556266700848937e-04</internalNodes>
      <leafValues>
        1.3473050296306610e-01 -9.1983310878276825e-02</leafValues></_>
    <_>
      <internalNodes>
        0 -1 120360 -5.0024772062897682e-03</internalNodes>
      <leafValues>
        4.5677351951599121e-01 -2.6263125240802765e-02</leafValues></_>
    <_>
      <internalNodes>
        0 -1 128040 6.3911965116858482e-04</internalNodes>
      <leafValues>
        5.6164439767599106e-02 -2.1749298274517059e-01</leafValues></_>
    <_>
      <internalNodes>
        0 -1 89662 4.8093404620885849e-03</internalNodes>
      <leafValues>
        -7.4507720768451691e-02 1.6804064810276031e-01</leafValues></_>
    <_>
      <internalNodes>
        0 -1 57673 -1.1671551037579775e-03</internalNodes>
      <leafValues>
        -2.0927202701568604e-01 5.8991413563489914e-02</leafValues></_>
    <_>
      <internalNodes>
        0 -1 58120 4.9859902355819941e-04</internalNodes>
      <leafValues>
        6.4704515039920807e-02 -1.8159058690071106e-01</leafValues></_>
    <_>
      <internalNodes>
        0 -1 71656 7.1693323552608490e-03</internalNodes>
      <leafValues>
        -8.0422043800354004e-02 1.5545503795146942e-01</leafValues></_>
    <_>
      <internalNodes>
        0 -1 92044 8.2511324435472488e-03</internalNodes>
      <leafValues>
        -9.0553618967533112e-02 1.8558675050735474e-01</leafValues></_>
    <_>
      <internalNodes>
        0 -1 77964 -2.2095504682511091e-03</internalNodes>
      <leafValues>
        1.5074844658374786e-01 -7.8533127903938293e-02</leafValues></_>
    <_>
      <internalNodes>
        0 -1 159832 -4.4350344687700272e-03</internalNodes>
      <leafValues>
        -3.8588047027587891e-01 3.1637310981750488e-02</leafValues></_>
    <_>
      <internalNodes>
        0 -1 117641 6.7615553736686707e-02</internalNodes>
      <leafValues>
        1.8583897501230240e-02 -6.0207843780517578e-01</leafValues></_>
    <_>
      <internalNodes>
        0 -1 117878 3.0869995243847370e-03</internalNodes>
      <leafValues>
        -6.8339712917804718e-02 1.8271332979202271e-01</leafValues></_>
    <_>
      <internalNodes>
        0 -1 117038 -2.0842854864895344e-03</internalNodes>
      <leafValues>
        1.4598575234413147e-01 -9.7942426800727844e-02</leafValues></_>
    <_>
      <internalNodes>
        0 -1 125774 -2.5446703657507896e-03</internalNodes>
      <leafValues>
        1.4841280877590179e-01 -9.4693727791309357e-02</leafValues></_>
    <_>
      <internalNodes>
        0 -1 152905 1.0458511533215642e-03</internalNodes>
      <leafValues>
        5.3249958902597427e-02 -2.5169399380683899e-01</leafValues></_>
    <_>
      <internalNodes>
        0 -1 82270 2.6205625385046005e-02</internalNodes>
      <leafValues>
        1.5651788562536240e-02 -7.1274209022521973e-01</leafValues></_>
    <_>
      <internalNodes>
        0 -1 10019 -2.0339561160653830e-03</internalNodes>
      <leafValues>
        -1.8318657577037811e-01 6.4235642552375793e-02</leafValues></_>
    <_>
      <internalNodes>
        0 -1 79330 -5.5396572861354798e-05</internalNodes>
      <leafValues>
        1.1602937430143356e-01 -1.0377936810255051e-01</leafValues></_>
    <_>
      <internalNodes>
        0 -1 90836 -9.5550000667572021e-02</internalNodes>
      <leafValues>
        -4.9270766973495483e-01 2.3437887430191040e-02</leafValues></_>
    <_>
      <internalNodes>
        0 -1 132550 -1.7229880904778838e-04</internalNodes>
      <leafValues>
        1.2631975114345551e-01 -9.4324380159378052e-02</leafValues></_>
    <_>
      <internalNodes>
        0 -1 126667 -1.1466493830084801e-02</internalNodes>
      <leafValues>
        -3.1361725926399231e-01 4.1775938123464584e-02</leafValues></_>
    <_>
      <internalNodes>
        0 -1 82972 6.6017699427902699e-03</internalNodes>
      <leafValues>
        -7.9035356640815735e-02 1.6358569264411926e-01</leafValues></_>
    <_>
      <internalNodes>
        0 -1 92514 6.7873555235564709e-04</internalNodes>
      <leafValues>
        6.3365846872329712e-02 -2.3232264816761017e-01</leafValues></_>
    <_>
      <internalNodes>
        0 -1 132213 1.4326717704534531e-02</internalNodes>
      <leafValues>
        -7.2655320167541504e-02 1.8536438047885895e-01</leafValues></_>
    <_>
      <internalNodes>
        0 -1 57979 9.2677362263202667e-02</internalNodes>
      <leafValues>
        2.3582033812999725e-02 -5.7562953233718872e-01</leafValues></_>
    <_>
      <internalNodes>
        0 -1 21005 -2.9962230473756790e-02</internalNodes>
      <leafValues>
        5.0723379850387573e-01 -2.6201263070106506e-02</leafValues></_>
    <_>
      <internalNodes>
        0 -1 13297 8.5942016448825598e-04</internalNodes>
      <leafValues>
        5.5834624916315079e-02 -2.4059939384460449e-01</leafValues></_>
    <_>
      <internalNodes>
        0 -1 98924 2.1714134141802788e-02</internalNodes>
      <leafValues>
        -7.9912386834621429e-02 1.5788672864437103e-01</leafValues></_>
    <_>
      <internalNodes>
        0 -1 58995 1.5222162473946810e-03</internalNodes>
      <leafValues>
        -8.5561238229274750e-02 1.4714041352272034e-01</leafValues></_>
    <_>
      <internalNodes>
        0 -1 123391 -5.8064186014235020e-03</internalNodes>
      <leafValues>
        3.5508382320404053e-01 -3.0520129948854446e-02</leafValues></_>
    <_>
      <internalNodes>
        0 -1 132552 1.3199669774621725e-03</internalNodes>
      <leafValues>
        -6.4906530082225800e-02 1.7542295157909393e-01</leafValues></_>
    <_>
      <internalNodes>
        0 -1 124764 3.8878902792930603e-02</internalNodes>
      <leafValues>
        2.7315843850374222e-02 -4.7699794173240662e-01</leafValues></_>
    <_>
      <internalNodes>
        0 -1 138080 1.1312896385788918e-03</internalNodes>
      <leafValues>
        -7.4259236454963684e-02 1.7943878471851349e-01</leafValues></_></weakClassifiers></stage5>
</opencv_storage>
