<?xml version="1.0"?>
<opencv_storage>
<stage4>
  <maxWeakCount>96</maxWeakCount>
  <stageThreshold>-1.2750959396362305e+00</stageThreshold>
  <weakClassifiers>
    <_>
      <internalNodes>
        0 -1 146329 -3.6452222615480423e-02</internalNodes>
      <leafValues>
        2.6825740933418274e-01 -2.7818545699119568e-01</leafValues></_>
    <_>
      <internalNodes>
        0 -1 31859 2.9791310429573059e-01</internalNodes>
      <leafValues>
        6.2373280525207520e-02 -5.3934317827224731e-01</leafValues></_>
    <_>
      <internalNodes>
        0 -1 31859 2.9601305723190308e-01</internalNodes>
      <leafValues>
        -9.4828411238268018e-04 7.8891330957412720e-01</leafValues></_>
    <_>
      <internalNodes>
        0 -1 31859 2.9492464661598206e-01</internalNodes>
      <leafValues>
        6.7296955967321992e-04 -7.1804326772689819e-01</leafValues></_>
    <_>
      <internalNodes>
        0 -1 31859 2.9410916566848755e-01</internalNodes>
      <leafValues>
        -2.4799990933388472e-04 7.6279526948928833e-01</leafValues></_>
    <_>
      <internalNodes>
        0 -1 31859 2.9253333806991577e-01</internalNodes>
      <leafValues>
        4.8304075608029962e-04 -7.3987346887588501e-01</leafValues></_>
    <_>
      <internalNodes>
        0 -1 8305 5.2296936511993408e-02</internalNodes>
      <leafValues>
        -9.4495572149753571e-02 3.5136947035789490e-01</leafValues></_>
    <_>
      <internalNodes>
        0 -1 119884 3.1140618957579136e-03</internalNodes>
      <leafValues>
        -7.8996950760483742e-03 5.3161370754241943e-01</leafValues></_>
    <_>
      <internalNodes>
        0 -1 119883 2.9063611291348934e-03</internalNodes>
      <leafValues>
        -7.6647087931632996e-02 4.1029214859008789e-01</leafValues></_>
    <_>
      <internalNodes>
        0 -1 119918 -8.4630073979496956e-04</internalNodes>
      <leafValues>
        2.1436972916126251e-01 -1.4300090074539185e-01</leafValues></_>
    <_>
      <internalNodes>
        0 -1 118628 5.0354423001408577e-03</internalNodes>
      <leafValues>
        -7.0978492498397827e-02 5.6028085947036743e-01</leafValues></_>
    <_>
      <internalNodes>
        0 -1 118628 -3.4457929432392120e-03</internalNodes>
      <leafValues>
        4.0892633795738220e-01 -5.2861005067825317e-02</leafValues></_>
    <_>
      <internalNodes>
        0 -1 120362 1.9388619111850858e-03</internalNodes>
      <leafValues>
        -4.9001730978488922e-02 3.3289611339569092e-01</leafValues></_>
    <_>
      <internalNodes>
        0 -1 113558 -2.4533981923013926e-04</internalNodes>
      <leafValues>
        1.7786516249179840e-01 -1.1599121987819672e-01</leafValues></_>
    <_>
      <internalNodes>
        0 -1 113558 4.7668878687545657e-04</internalNodes>
      <leafValues>
        -1.1957669258117676e-01 2.1072463691234589e-01</leafValues></_>
    <_>
      <internalNodes>
        0 -1 128046 1.2456550393835641e-05</internalNodes>
      <leafValues>
        -1.3292367756366730e-01 1.3268278539180756e-01</leafValues></_>
    <_>
      <internalNodes>
        0 -1 104960 2.9927996918559074e-02</internalNodes>
      <leafValues>
        -6.7478679120540619e-02 2.3882098495960236e-01</leafValues></_>
    <_>
      <internalNodes>
        0 -1 49477 1.1679412564262748e-03</internalNodes>
      <leafValues>
        4.8531591892242432e-02 -3.2382497191429138e-01</leafValues></_>
    <_>
      <internalNodes>
        0 -1 118252 3.2495856285095215e-03</internalNodes>
      <leafValues>
        -3.2802846282720566e-02 4.3751680850982666e-01</leafValues></_>
    <_>
      <internalNodes>
        0 -1 87794 -4.1123004630208015e-03</internalNodes>
      <leafValues>
        1.9223099946975708e-01 -7.9851910471916199e-02</leafValues></_>
    <_>
      <internalNodes>
        0 -1 157602 1.6855355352163315e-03</internalNodes>
      <leafValues>
        5.1542300730943680e-02 -3.1198093295097351e-01</leafValues></_>
    <_>
      <internalNodes>
        0 -1 126352 -7.5876910705119371e-04</internalNodes>
      <leafValues>
        1.9342581927776337e-01 -8.8938772678375244e-02</leafValues></_>
    <_>
      <internalNodes>
        0 -1 126352 6.3593022059649229e-04</internalNodes>
      <leafValues>
        -1.0145796835422516e-01 1.9655655324459076e-01</leafValues></_>
    <_>
      <internalNodes>
        0 -1 76448 -3.5417575389146805e-02</internalNodes>
      <leafValues>
        2.6987653970718384e-01 -6.2145289033651352e-02</leafValues></_>
    <_>
      <internalNodes>
        0 -1 162095 2.0794679876416922e-03</internalNodes>
      <leafValues>
        3.3740151673555374e-02 -4.3795269727706909e-01</leafValues></_>
    <_>
      <internalNodes>
        0 -1 148785 -3.2877374440431595e-02</internalNodes>
      <leafValues>
        2.3211845755577087e-01 -7.4535310268402100e-02</leafValues></_>
    <_>
      <internalNodes>
        0 -1 161769 8.9095886796712875e-03</internalNodes>
      <leafValues>
        4.3936911970376968e-02 -4.2320346832275391e-01</leafValues></_>
    <_>
      <internalNodes>
        0 -1 125752 3.8306582719087601e-03</internalNodes>
      <leafValues>
        -4.0561292320489883e-02 4.8412325978279114e-01</leafValues></_>
    <_>
      <internalNodes>
        0 -1 125052 3.2097700750455260e-04</internalNodes>
      <leafValues>
        -9.0768054127693176e-02 1.7559906840324402e-01</leafValues></_>
    <_>
      <internalNodes>
        0 -1 161472 -2.8871861286461353e-03</internalNodes>
      <leafValues>
        -3.1998121738433838e-01 5.1385134458541870e-02</leafValues></_>
    <_>
      <internalNodes>
        0 -1 602 7.0746138691902161e-02</internalNodes>
      <leafValues>
        -1.0016392916440964e-01 1.6326402127742767e-01</leafValues></_>
    <_>
      <internalNodes>
        0 -1 131806 1.6534591559320688e-03</internalNodes>
      <leafValues>
        -6.1091620475053787e-02 2.5947305560112000e-01</leafValues></_>
    <_>
      <internalNodes>
        0 -1 49557 -1.7377294134348631e-03</internalNodes>
      <leafValues>
        -3.1731292605400085e-01 5.1088262349367142e-02</leafValues></_>
    <_>
      <internalNodes>
        0 -1 97130 8.0566393444314599e-04</internalNodes>
      <leafValues>
        -1.0317780822515488e-01 1.4477805793285370e-01</leafValues></_>
    <_>
      <internalNodes>
        0 -1 4125 2.2166538983583450e-02</internalNodes>
      <leafValues>
        1.8221508711576462e-02 -8.0141651630401611e-01</leafValues></_>
    <_>
      <internalNodes>
        0 -1 89428 3.5141914850100875e-05</internalNodes>
      <leafValues>
        -1.1838814616203308e-01 1.3018915057182312e-01</leafValues></_>
    <_>
      <internalNodes>
        0 -1 107535 -4.4659478589892387e-03</internalNodes>
      <leafValues>
        1.6270112991333008e-01 -9.4259932637214661e-02</leafValues></_>
    <_>
      <internalNodes>
        0 -1 57668 1.3675141381099820e-03</internalNodes>
      <leafValues>
        5.6217554956674576e-02 -2.8444328904151917e-01</leafValues></_>
    <_>
      <internalNodes>
        0 -1 132753 -1.8128006486222148e-03</internalNodes>
      <leafValues>
        2.1018169820308685e-01 -6.9531932473182678e-02</leafValues></_>
    <_>
      <internalNodes>
        0 -1 126862 -6.0335418675094843e-04</internalNodes>
      <leafValues>
        1.5393342077732086e-01 -9.5146745443344116e-02</leafValues></_>
    <_>
      <internalNodes>
        0 -1 150480 6.4787396695464849e-04</internalNodes>
      <leafValues>
        6.7912377417087555e-02 -2.1155619621276855e-01</leafValues></_>
    <_>
      <internalNodes>
        0 -1 9437 -1.1307968525215983e-03</internalNodes>
      <leafValues>
        -3.0184510350227356e-01 4.3936885893344879e-02</leafValues></_>
    <_>
      <internalNodes>
        0 -1 34999 1.1471642181277275e-02</internalNodes>
      <leafValues>
        -7.2682775557041168e-02 1.9876170158386230e-01</leafValues></_>
    <_>
      <internalNodes>
        0 -1 144029 -1.0631694749463350e-05</internalNodes>
      <leafValues>
        1.2392610311508179e-01 -1.1001352220773697e-01</leafValues></_>
    <_>
      <internalNodes>
        0 -1 148294 1.5666409162804484e-03</internalNodes>
      <leafValues>
        4.1796673089265823e-02 -3.5268050432205200e-01</leafValues></_>
    <_>
      <internalNodes>
        0 -1 131207 -5.6170402094721794e-03</internalNodes>
      <leafValues>
        5.7908457517623901e-01 -2.5992279872298241e-02</leafValues></_>
    <_>
      <internalNodes>
        0 -1 143194 2.0352595020085573e-03</internalNodes>
      <leafValues>
        -5.3715217858552933e-02 2.5176605582237244e-01</leafValues></_>
    <_>
      <internalNodes>
        0 -1 13186 4.4044619426131248e-03</internalNodes>
      <leafValues>
        2.4754237383604050e-02 -5.9501713514328003e-01</leafValues></_>
    <_>
      <internalNodes>
        0 -1 120362 -2.2419197484850883e-03</internalNodes>
      <leafValues>
        3.1048139929771423e-01 -4.9624528735876083e-02</leafValues></_>
    <_>
      <internalNodes>
        0 -1 150479 -6.8464677315205336e-04</internalNodes>
      <leafValues>
        -2.1555499732494354e-01 7.1522697806358337e-02</leafValues></_>
    <_>
      <internalNodes>
        0 -1 125563 3.7435968406498432e-03</internalNodes>
      <leafValues>
        -7.1621961891651154e-02 1.9949750602245331e-01</leafValues></_>
    <_>
      <internalNodes>
        0 -1 28657 2.4618189781904221e-03</internalNodes>
      <leafValues>
        4.1655492037534714e-02 -3.3013188838958740e-01</leafValues></_>
    <_>
      <internalNodes>
        0 -1 111430 -1.8427881877869368e-03</internalNodes>
      <leafValues>
        2.5180247426033020e-01 -5.2738301455974579e-02</leafValues></_>
    <_>
      <internalNodes>
        0 -1 56295 5.7629447430372238e-02</internalNodes>
      <leafValues>
        1.6232600435614586e-02 -8.2234257459640503e-01</leafValues></_>
    <_>
      <internalNodes>
        0 -1 160304 2.2973787039518356e-02</internalNodes>
      <leafValues>
        -3.3521756529808044e-02 4.4368144869804382e-01</leafValues></_>
    <_>
      <internalNodes>
        0 -1 15689 9.9195785820484161e-02</internalNodes>
      <leafValues>
        -3.4926537424325943e-02 3.5163128376007080e-01</leafValues></_>
    <_>
      <internalNodes>
        0 -1 71121 -3.0975511297583580e-02</internalNodes>
      <leafValues>
        -4.9312791228294373e-01 2.9703985899686813e-02</leafValues></_>
    <_>
      <internalNodes>
        0 -1 134628 1.1500001164677087e-05</internalNodes>
      <leafValues>
        -1.1599903553724289e-01 1.1649813503026962e-01</leafValues></_>
    <_>
      <internalNodes>
        0 -1 103464 -3.5268962383270264e-03</internalNodes>
      <leafValues>
        1.6404302418231964e-01 -7.7693901956081390e-02</leafValues></_>
    <_>
      <internalNodes>
        0 -1 103375 2.9406337998807430e-03</internalNodes>
      <leafValues>
        -7.7717967331409454e-02 1.9431690871715546e-01</leafValues></_>
    <_>
      <internalNodes>
        0 -1 28652 -5.2298849914222956e-04</internalNodes>
      <leafValues>
        -2.2613646090030670e-01 5.7047292590141296e-02</leafValues></_>
    <_>
      <internalNodes>
        0 -1 112807 -2.8475630097091198e-03</internalNodes>
      <leafValues>
        2.6539760828018188e-01 -5.0152450799942017e-02</leafValues></_>
    <_>
      <internalNodes>
        0 -1 105399 -5.0563953118398786e-04</internalNodes>
      <leafValues>
        1.4158537983894348e-01 -9.6098892390727997e-02</leafValues></_>
    <_>
      <internalNodes>
        0 -1 75712 -4.8374023754149675e-04</internalNodes>
      <leafValues>
        -2.0754586160182953e-01 6.2050189822912216e-02</leafValues></_>
    <_>
      <internalNodes>
        0 -1 161184 -1.1148599696753081e-05</internalNodes>
      <leafValues>
        1.2964205443859100e-01 -1.0259314626455307e-01</leafValues></_>
    <_>
      <internalNodes>
        0 -1 93190 3.9566945284605026e-02</internalNodes>
      <leafValues>
        2.0020436495542526e-02 -6.5676063299179077e-01</leafValues></_>
    <_>
      <internalNodes>
        0 -1 161184 -8.7410386186093092e-04</internalNodes>
      <leafValues>
        -2.6493972539901733e-01 4.7390162944793701e-02</leafValues></_>
    <_>
      <internalNodes>
        0 -1 120759 4.9227569252252579e-04</internalNodes>
      <leafValues>
        -1.0427296906709671e-01 1.2891644239425659e-01</leafValues></_>
    <_>
      <internalNodes>
        0 -1 114207 5.6413770653307438e-04</internalNodes>
      <leafValues>
        -9.1340191662311554e-02 1.5412302315235138e-01</leafValues></_>
    <_>
      <internalNodes>
        0 -1 149394 1.0551985724305268e-05</internalNodes>
      <leafValues>
        -1.1146874725818634e-01 1.2072253227233887e-01</leafValues></_>
    <_>
      <internalNodes>
        0 -1 125811 -2.3360759019851685e-02</internalNodes>
      <leafValues>
        -4.5487204194068909e-01 2.9440047219395638e-02</leafValues></_>
    <_>
      <internalNodes>
        0 -1 122966 4.7965189442038536e-03</internalNodes>
      <leafValues>
        -7.9347364604473114e-02 1.7003545165061951e-01</leafValues></_>
    <_>
      <internalNodes>
        0 -1 116537 1.8717270577326417e-03</internalNodes>
      <leafValues>
        -7.5134277343750000e-02 1.8233969807624817e-01</leafValues></_>
    <_>
      <internalNodes>
        0 -1 159927 -2.4217499885708094e-03</internalNodes>
      <leafValues>
        -3.3876252174377441e-01 4.0047600865364075e-02</leafValues></_>
    <_>
      <internalNodes>
        0 -1 137856 6.6988589242100716e-04</internalNodes>
      <leafValues>
        -8.1458389759063721e-02 1.6458386182785034e-01</leafValues></_>
    <_>
      <internalNodes>
        0 -1 137220 6.2359899282455444e-02</internalNodes>
      <leafValues>
        -4.0357202291488647e-02 3.0627864599227905e-01</leafValues></_>
    <_>
      <internalNodes>
        0 -1 126149 -4.3648695573210716e-03</internalNodes>
      <leafValues>
        2.0953676104545593e-01 -6.0964524745941162e-02</leafValues></_>
    <_>
      <internalNodes>
        0 -1 132073 5.8336560614407063e-03</internalNodes>
      <leafValues>
        -2.6780270040035248e-02 4.8288992047309875e-01</leafValues></_>
    <_>
      <internalNodes>
        0 -1 141639 -7.2801145724952221e-03</internalNodes>
      <leafValues>
        -4.7539690136909485e-01 2.9853183776140213e-02</leafValues></_>
    <_>
      <internalNodes>
        0 -1 150363 4.4076893478631973e-02</internalNodes>
      <leafValues>
        -2.2717107087373734e-02 6.9231951236724854e-01</leafValues></_>
    <_>
      <internalNodes>
        0 -1 38098 2.8399888426065445e-02</internalNodes>
      <leafValues>
        -7.3729857802391052e-02 1.7900757491588593e-01</leafValues></_>
    <_>
      <internalNodes>
        0 -1 147656 -2.4618394672870636e-02</internalNodes>
      <leafValues>
        2.4274612963199615e-01 -5.2212711423635483e-02</leafValues></_>
    <_>
      <internalNodes>
        0 -1 159667 -1.6600602539256215e-03</internalNodes>
      <leafValues>
        -1.8783810734748840e-01 6.6980279982089996e-02</leafValues></_>
    <_>
      <internalNodes>
        0 -1 91782 -3.7623373791575432e-03</internalNodes>
      <leafValues>
        1.7786313593387604e-01 -7.5103625655174255e-02</leafValues></_>
    <_>
      <internalNodes>
        0 -1 13392 8.3814829122275114e-04</internalNodes>
      <leafValues>
        4.9682151526212692e-02 -2.5461205840110779e-01</leafValues></_>
    <_>
      <internalNodes>
        0 -1 76540 -2.3860745131969452e-03</internalNodes>
      <leafValues>
        1.5587528049945831e-01 -8.3714649081230164e-02</leafValues></_>
    <_>
      <internalNodes>
        0 -1 148870 -1.2318935660005081e-05</internalNodes>
      <leafValues>
        1.2233343720436096e-01 -1.0687330365180969e-01</leafValues></_>
    <_>
      <internalNodes>
        0 -1 97035 -2.8799876570701599e-02</internalNodes>
      <leafValues>
        -4.7410589456558228e-01 2.7394350618124008e-02</leafValues></_>
    <_>
      <internalNodes>
        0 -1 126735 1.5020718798041344e-02</internalNodes>
      <leafValues>
        2.9246935620903969e-02 -4.3750983476638794e-01</leafValues></_>
    <_>
      <internalNodes>
        0 -1 157419 1.8619789625518024e-04</internalNodes>
      <leafValues>
        -9.6391290426254272e-02 1.3488942384719849e-01</leafValues></_>
    <_>
      <internalNodes>
        0 -1 148870 -6.8112311419099569e-04</internalNodes>
      <leafValues>
        -2.2546359896659851e-01 5.7894870638847351e-02</leafValues></_>
    <_>
      <internalNodes>
        0 -1 161334 -1.1079984687967226e-05</internalNodes>
      <leafValues>
        1.2143016606569290e-01 -1.0185913741588593e-01</leafValues></_>
    <_>
      <internalNodes>
        0 -1 137342 -2.4493884295225143e-02</internalNodes>
      <leafValues>
        1.9915665686130524e-01 -5.8128841221332550e-02</leafValues></_>
    <_>
      <internalNodes>
        0 -1 116419 -2.0899286866188049e-01</internalNodes>
      <leafValues>
        -7.1560657024383545e-01 1.7826618626713753e-02</leafValues></_>
    <_>
      <internalNodes>
        0 -1 64915 8.4362959023565054e-04</internalNodes>
      <leafValues>
        5.2605140954256058e-02 -2.4539984762668610e-01</leafValues></_>
    <_>
      <internalNodes>
        0 -1 127017 -3.8978757802397013e-03</internalNodes>
      <leafValues>
        1.7139329016208649e-01 -7.3477916419506073e-02</leafValues></_></weakClassifiers></stage4>
</opencv_storage>
