<?xml version="1.0"?>
<opencv_storage>
<stage1>
  <maxWeakCount>47</maxWeakCount>
  <stageThreshold>-1.5984783172607422e+00</stageThreshold>
  <weakClassifiers>
    <_>
      <internalNodes>
        0 -1 119597 2.0016257185488939e-03</internalNodes>
      <leafValues>
        -2.7553147077560425e-01 4.0850278735160828e-01</leafValues></_>
    <_>
      <internalNodes>
        0 -1 119597 -2.0188060589134693e-03</internalNodes>
      <leafValues>
        5.2852600812911987e-01 -1.4236898720264435e-01</leafValues></_>
    <_>
      <internalNodes>
        0 -1 21089 1.9612854346632957e-02</internalNodes>
      <leafValues>
        -1.2092752754688263e-01 4.1257646679878235e-01</leafValues></_>
    <_>
      <internalNodes>
        0 -1 118629 1.7924413550645113e-03</internalNodes>
      <leafValues>
        -1.2937729060649872e-01 4.9795538187026978e-01</leafValues></_>
    <_>
      <internalNodes>
        0 -1 118629 -2.0526738371700048e-03</internalNodes>
      <leafValues>
        6.3544732332229614e-01 -4.8533972352743149e-02</leafValues></_>
    <_>
      <internalNodes>
        0 -1 113558 -1.6313227824866772e-03</internalNodes>
      <leafValues>
        4.8862782120704651e-01 -8.3769194781780243e-02</leafValues></_>
    <_>
      <internalNodes>
        0 -1 113558 1.1301874183118343e-03</internalNodes>
      <leafValues>
        -1.1765754967927933e-01 3.8507851958274841e-01</leafValues></_>
    <_>
      <internalNodes>
        0 -1 146551 -2.0357593894004822e-02</internalNodes>
      <leafValues>
        3.5861569643020630e-01 -1.2183436751365662e-01</leafValues></_>
    <_>
      <internalNodes>
        0 -1 1092 5.6185811758041382e-02</internalNodes>
      <leafValues>
        -1.3597299158573151e-01 2.7868735790252686e-01</leafValues></_>
    <_>
      <internalNodes>
        0 -1 112253 -5.8546671643853188e-03</internalNodes>
      <leafValues>
        5.6644982099533081e-01 -6.4251445233821869e-02</leafValues></_>
    <_>
      <internalNodes>
        0 -1 132754 -1.5800283290445805e-03</internalNodes>
      <leafValues>
        3.5328698158264160e-01 -1.0499099642038345e-01</leafValues></_>
    <_>
      <internalNodes>
        0 -1 126864 1.1723884381353855e-03</internalNodes>
      <leafValues>
        -1.0424533486366272e-01 3.5701665282249451e-01</leafValues></_>
    <_>
      <internalNodes>
        0 -1 161239 1.5896322205662727e-02</internalNodes>
      <leafValues>
        7.1036569774150848e-02 -5.6209802627563477e-01</leafValues></_>
    <_>
      <internalNodes>
        0 -1 120128 2.1756684873253107e-03</internalNodes>
      <leafValues>
        -8.1250742077827454e-02 4.5825764536857605e-01</leafValues></_>
    <_>
      <internalNodes>
        0 -1 126523 2.2352978587150574e-02</internalNodes>
      <leafValues>
        -8.5587345063686371e-02 3.9220920205116272e-01</leafValues></_>
    <_>
      <internalNodes>
        0 -1 102010 2.6247106492519379e-02</internalNodes>
      <leafValues>
        -9.5923632383346558e-02 3.3701992034912109e-01</leafValues></_>
    <_>
      <internalNodes>
        0 -1 10 -1.8057392444461584e-03</internalNodes>
      <leafValues>
        -3.6421307921409607e-01 1.0787854343652725e-01</leafValues></_>
    <_>
      <internalNodes>
        0 -1 113076 1.4414121396839619e-03</internalNodes>
      <leafValues>
        -1.1505208164453506e-01 3.2923331856727600e-01</leafValues></_>
    <_>
      <internalNodes>
        0 -1 12 1.6094939783215523e-03</internalNodes>
      <leafValues>
        1.3036207854747772e-01 -2.6724910736083984e-01</leafValues></_>
    <_>
      <internalNodes>
        0 -1 111528 -2.4480377323925495e-03</internalNodes>
      <leafValues>
        2.7106326818466187e-01 -1.3507944345474243e-01</leafValues></_>
    <_>
      <internalNodes>
        0 -1 118678 3.7636654451489449e-03</internalNodes>
      <leafValues>
        -4.1911792010068893e-02 4.5723009109497070e-01</leafValues></_>
    <_>
      <internalNodes>
        0 -1 96175 5.4674325510859489e-03</internalNodes>
      <leafValues>
        -7.0317745208740234e-02 3.7793371081352234e-01</leafValues></_>
    <_>
      <internalNodes>
        0 -1 56124 4.0737435221672058e-02</internalNodes>
      <leafValues>
        3.4052677452564240e-02 -9.3761181831359863e-01</leafValues></_>
    <_>
      <internalNodes>
        0 -1 135038 -5.2283890545368195e-04</internalNodes>
      <leafValues>
        -3.0208241939544678e-01 7.9866506159305573e-02</leafValues></_>
    <_>
      <internalNodes>
        0 -1 112807 -2.8497511520981789e-03</internalNodes>
      <leafValues>
        3.7961825728416443e-01 -7.8851267695426941e-02</leafValues></_>
    <_>
      <internalNodes>
        0 -1 23173 5.2372157573699951e-02</internalNodes>
      <leafValues>
        4.7876432538032532e-02 -9.3715840578079224e-01</leafValues></_>
    <_>
      <internalNodes>
        0 -1 102868 -5.2648507058620453e-02</internalNodes>
      <leafValues>
        -4.8455560207366943e-01 2.9345087707042694e-02</leafValues></_>
    <_>
      <internalNodes>
        0 -1 60512 -1.5642758458852768e-02</internalNodes>
      <leafValues>
        -5.2007150650024414e-01 5.1327776163816452e-02</leafValues></_>
    <_>
      <internalNodes>
        0 -1 49551 -2.6122312992811203e-02</internalNodes>
      <leafValues>
        -6.2046051025390625e-01 3.9214946329593658e-02</leafValues></_>
    <_>
      <internalNodes>
        0 -1 111430 2.2553799208253622e-03</internalNodes>
      <leafValues>
        -6.5331995487213135e-02 4.4631895422935486e-01</leafValues></_>
    <_>
      <internalNodes>
        0 -1 38414 -3.3023778349161148e-02</internalNodes>
      <leafValues>
        2.5848454236984253e-01 -9.8457910120487213e-02</leafValues></_>
    <_>
      <internalNodes>
        0 -1 136057 -6.5264068543910980e-02</internalNodes>
      <leafValues>
        3.9743128418922424e-01 -6.1268784105777740e-02</leafValues></_>
    <_>
      <internalNodes>
        0 -1 155786 5.5877797305583954e-02</internalNodes>
      <leafValues>
        -8.6346872150897980e-02 2.7270540595054626e-01</leafValues></_>
    <_>
      <internalNodes>
        0 -1 126107 -2.3106895387172699e-03</internalNodes>
      <leafValues>
        2.7403900027275085e-01 -8.4957934916019440e-02</leafValues></_>
    <_>
      <internalNodes>
        0 -1 79492 3.1703412532806396e-02</internalNodes>
      <leafValues>
        -6.1851892620325089e-02 3.9042392373085022e-01</leafValues></_>
    <_>
      <internalNodes>
        0 -1 132554 -1.1201095767319202e-03</internalNodes>
      <leafValues>
        2.8543305397033691e-01 -8.8929973542690277e-02</leafValues></_>
    <_>
      <internalNodes>
        0 -1 124264 1.1612398084253073e-03</internalNodes>
      <leafValues>
        -7.7403582632541656e-02 2.9978951811790466e-01</leafValues></_>
    <_>
      <internalNodes>
        0 -1 13012 -5.8685289695858955e-03</internalNodes>
      <leafValues>
        -4.3070277571678162e-01 5.6819681078195572e-02</leafValues></_>
    <_>
      <internalNodes>
        0 -1 35399 9.1318339109420776e-02</internalNodes>
      <leafValues>
        2.4999352172017097e-02 -8.2800400257110596e-01</leafValues></_>
    <_>
      <internalNodes>
        0 -1 118628 -1.9569147843867540e-03</internalNodes>
      <leafValues>
        3.0045095086097717e-01 -8.7537795305252075e-02</leafValues></_>
    <_>
      <internalNodes>
        0 -1 88454 -4.6385206282138824e-02</internalNodes>
      <leafValues>
        4.1143128275871277e-01 -5.6156095117330551e-02</leafValues></_>
    <_>
      <internalNodes>
        0 -1 19478 -3.2323986291885376e-02</internalNodes>
      <leafValues>
        -7.7490514516830444e-01 3.3498514443635941e-02</leafValues></_>
    <_>
      <internalNodes>
        0 -1 117615 -3.6136184353381395e-03</internalNodes>
      <leafValues>
        3.0244868993759155e-01 -9.7995370626449585e-02</leafValues></_>
    <_>
      <internalNodes>
        0 -1 6360 -4.1050456464290619e-02</internalNodes>
      <leafValues>
        -6.9229084253311157e-01 3.7631012499332428e-02</leafValues></_>
    <_>
      <internalNodes>
        0 -1 119598 -1.3030711561441422e-03</internalNodes>
      <leafValues>
        2.7765971422195435e-01 -8.3911567926406860e-02</leafValues></_>
    <_>
      <internalNodes>
        0 -1 146163 2.5596044724807143e-04</internalNodes>
      <leafValues>
        1.1599145829677582e-01 -2.0381487905979156e-01</leafValues></_>
    <_>
      <internalNodes>
        0 -1 145899 -1.0205483995378017e-03</internalNodes>
      <leafValues>
        -2.5664874911308289e-01 8.2869999110698700e-02</leafValues></_></weakClassifiers></stage1>
</opencv_storage>
