<?xml version="1.0"?>
<opencv_storage>
<stage11>
  <maxWeakCount>100</maxWeakCount>
  <stageThreshold>-1.5006244182586670e+00</stageThreshold>
  <weakClassifiers>
    <_>
      <internalNodes>
        0 -1 1088 3.8093011826276779e-02</internalNodes>
      <leafValues>
        -2.6868197321891785e-01 1.3237822055816650e-01</leafValues></_>
    <_>
      <internalNodes>
        0 -1 18186 7.6395973563194275e-02</internalNodes>
      <leafValues>
        -7.3610380291938782e-02 4.1861984133720398e-01</leafValues></_>
    <_>
      <internalNodes>
        0 -1 75711 -6.5758894197642803e-04</internalNodes>
      <leafValues>
        -3.3862480521202087e-01 6.6756606101989746e-02</leafValues></_>
    <_>
      <internalNodes>
        0 -1 154028 -1.8714644014835358e-02</internalNodes>
      <leafValues>
        3.0721622705459595e-01 -6.0876205563545227e-02</leafValues></_>
    <_>
      <internalNodes>
        0 -1 62070 8.5012277122586966e-04</internalNodes>
      <leafValues>
        6.5318353474140167e-02 -2.9153677821159363e-01</leafValues></_>
    <_>
      <internalNodes>
        0 -1 75104 -1.8696470651775599e-03</internalNodes>
      <leafValues>
        -2.2965586185455322e-01 9.7377941012382507e-02</leafValues></_>
    <_>
      <internalNodes>
        0 -1 87023 9.9934488534927368e-03</internalNodes>
      <leafValues>
        -7.3254108428955078e-02 2.3543612658977509e-01</leafValues></_>
    <_>
      <internalNodes>
        0 -1 96315 -7.2984765283763409e-03</internalNodes>
      <leafValues>
        2.4161012470722198e-01 -6.8630605936050415e-02</leafValues></_>
    <_>
      <internalNodes>
        0 -1 13372 1.0292747756466269e-03</internalNodes>
      <leafValues>
        5.5011060088872910e-02 -2.9956948757171631e-01</leafValues></_>
    <_>
      <internalNodes>
        0 -1 62075 -8.7827799143269658e-04</internalNodes>
      <leafValues>
        -2.1907606720924377e-01 8.2812547683715820e-02</leafValues></_>
    <_>
      <internalNodes>
        0 -1 126575 -3.7106787785887718e-03</internalNodes>
      <leafValues>
        1.9451993703842163e-01 -8.0800123512744904e-02</leafValues></_>
    <_>
      <internalNodes>
        0 -1 13372 1.9839204469462857e-05</internalNodes>
      <leafValues>
        -1.2616355717182159e-01 1.2559372186660767e-01</leafValues></_>
    <_>
      <internalNodes>
        0 -1 81453 -3.9180856198072433e-02</internalNodes>
      <leafValues>
        2.6361501216888428e-01 -6.3087575137615204e-02</leafValues></_>
    <_>
      <internalNodes>
        0 -1 3672 -1.8769504502415657e-02</internalNodes>
      <leafValues>
        -1.5183007717132568e-01 1.0491015762090683e-01</leafValues></_>
    <_>
      <internalNodes>
        0 -1 19659 -2.9386224225163460e-02</internalNodes>
      <leafValues>
        5.2146387100219727e-01 -3.2316725701093674e-02</leafValues></_>
    <_>
      <internalNodes>
        0 -1 44241 3.3012941479682922e-02</internalNodes>
      <leafValues>
        -6.4760588109493256e-02 2.1387845277786255e-01</leafValues></_>
    <_>
      <internalNodes>
        0 -1 84710 4.7327298671007156e-04</internalNodes>
      <leafValues>
        6.9323822855949402e-02 -2.0232890546321869e-01</leafValues></_>
    <_>
      <internalNodes>
        0 -1 126351 4.0770312771201134e-03</internalNodes>
      <leafValues>
        -4.0722258388996124e-02 3.1487452983856201e-01</leafValues></_>
    <_>
      <internalNodes>
        0 -1 162097 1.8231825670227408e-03</internalNodes>
      <leafValues>
        4.8846706748008728e-02 -2.5643604993820190e-01</leafValues></_>
    <_>
      <internalNodes>
        0 -1 112122 -9.7859390079975128e-03</internalNodes>
      <leafValues>
        2.2553271055221558e-01 -5.6239809840917587e-02</leafValues></_>
    <_>
      <internalNodes>
        0 -1 125610 -3.4025120548903942e-03</internalNodes>
      <leafValues>
        1.7635920643806458e-01 -7.9464130103588104e-02</leafValues></_>
    <_>
      <internalNodes>
        0 -1 118410 -3.1475354917347431e-03</internalNodes>
      <leafValues>
        1.7933632433414459e-01 -7.6840594410896301e-02</leafValues></_>
    <_>
      <internalNodes>
        0 -1 153550 5.9100246289744973e-04</internalNodes>
      <leafValues>
        6.6385380923748016e-02 -1.9748415052890778e-01</leafValues></_>
    <_>
      <internalNodes>
        0 -1 153550 -5.7502870913594961e-04</internalNodes>
      <leafValues>
        -2.1393842995166779e-01 6.2189191579818726e-02</leafValues></_>
    <_>
      <internalNodes>
        0 -1 132198 -2.5569337885826826e-03</internalNodes>
      <leafValues>
        1.5771558880805969e-01 -7.3739193379878998e-02</leafValues></_>
    <_>
      <internalNodes>
        0 -1 44468 4.9113634973764420e-02</internalNodes>
      <leafValues>
        -3.4746419638395309e-02 3.7076529860496521e-01</leafValues></_>
    <_>
      <internalNodes>
        0 -1 46196 -2.5489732623100281e-02</internalNodes>
      <leafValues>
        2.1388280391693115e-01 -6.7403428256511688e-02</leafValues></_>
    <_>
      <internalNodes>
        0 -1 3132 -1.5707698184996843e-03</internalNodes>
      <leafValues>
        -3.3588656783103943e-01 3.6242939531803131e-02</leafValues></_>
    <_>
      <internalNodes>
        0 -1 74816 1.6751562058925629e-01</internalNodes>
      <leafValues>
        1.8497107550501823e-02 -6.4939785003662109e-01</leafValues></_>
    <_>
      <internalNodes>
        0 -1 2132 1.0086984839290380e-03</internalNodes>
      <leafValues>
        4.4743586331605911e-02 -2.5179457664489746e-01</leafValues></_>
    <_>
      <internalNodes>
        0 -1 110645 -3.0937842093408108e-03</internalNodes>
      <leafValues>
        2.2858583927154541e-01 -5.5550411343574524e-02</leafValues></_>
    <_>
      <internalNodes>
        0 -1 139397 2.6644447643775493e-05</internalNodes>
      <leafValues>
        -1.1503203213214874e-01 1.0333807021379471e-01</leafValues></_>
    <_>
      <internalNodes>
        0 -1 120835 -2.6051835156977177e-03</internalNodes>
      <leafValues>
        1.4745174348354340e-01 -7.4577637016773224e-02</leafValues></_>
    <_>
      <internalNodes>
        0 -1 161182 2.0001328084617853e-03</internalNodes>
      <leafValues>
        3.3424552530050278e-02 -3.6650502681732178e-01</leafValues></_>
    <_>
      <internalNodes>
        0 -1 19332 -1.8882042169570923e-01</internalNodes>
      <leafValues>
        -5.4181647300720215e-01 1.8314857035875320e-02</leafValues></_>
    <_>
      <internalNodes>
        0 -1 161066 1.7809804994612932e-03</internalNodes>
      <leafValues>
        5.6536313146352768e-02 -1.8817698955535889e-01</leafValues></_>
    <_>
      <internalNodes>
        0 -1 51405 -3.6654978990554810e-02</internalNodes>
      <leafValues>
        2.7296814322471619e-01 -4.2545646429061890e-02</leafValues></_>
    <_>
      <internalNodes>
        0 -1 120618 -1.9795028492808342e-03</internalNodes>
      <leafValues>
        1.4613811671733856e-01 -7.3019370436668396e-02</leafValues></_>
    <_>
      <internalNodes>
        0 -1 56687 5.9716124087572098e-04</internalNodes>
      <leafValues>
        5.8378431946039200e-02 -1.8914276361465454e-01</leafValues></_>
    <_>
      <internalNodes>
        0 -1 31229 -2.0608913619071245e-03</internalNodes>
      <leafValues>
        1.4297817647457123e-01 -7.5380131602287292e-02</leafValues></_>
    <_>
      <internalNodes>
        0 -1 59698 -3.0294541269540787e-02</internalNodes>
      <leafValues>
        2.7309420704841614e-01 -4.0561709553003311e-02</leafValues></_>
    <_>
      <internalNodes>
        0 -1 49507 1.1648662388324738e-02</internalNodes>
      <leafValues>
        -5.7114627212285995e-02 2.0157088339328766e-01</leafValues></_>
    <_>
      <internalNodes>
        0 -1 65606 1.3365007471293211e-03</internalNodes>
      <leafValues>
        5.6943811476230621e-02 -2.0571677386760712e-01</leafValues></_>
    <_>
      <internalNodes>
        0 -1 45029 1.1373260349500924e-04</internalNodes>
      <leafValues>
        -1.3652801513671875e-01 9.4800531864166260e-02</leafValues></_>
    <_>
      <internalNodes>
        0 -1 103270 4.1814385913312435e-03</internalNodes>
      <leafValues>
        -5.2408728748559952e-02 2.1635575592517853e-01</leafValues></_>
    <_>
      <internalNodes>
        0 -1 151992 -9.2141851782798767e-03</internalNodes>
      <leafValues>
        1.5149535238742828e-01 -7.1229942142963409e-02</leafValues></_>
    <_>
      <internalNodes>
        0 -1 144715 2.5343229935970157e-05</internalNodes>
      <leafValues>
        -1.0771936923265457e-01 1.0827512294054031e-01</leafValues></_>
    <_>
      <internalNodes>
        0 -1 157217 2.3050338029861450e-02</internalNodes>
      <leafValues>
        -2.0245213061571121e-02 5.4396247863769531e-01</leafValues></_>
    <_>
      <internalNodes>
        0 -1 86274 -9.0815022122114897e-04</internalNodes>
      <leafValues>
        -1.6848981380462646e-01 6.8931452929973602e-02</leafValues></_>
    <_>
      <internalNodes>
        0 -1 120566 4.4063837267458439e-03</internalNodes>
      <leafValues>
        -3.1423274427652359e-02 3.4975138306617737e-01</leafValues></_>
    <_>
      <internalNodes>
        0 -1 162062 1.0258906986564398e-03</internalNodes>
      <leafValues>
        4.8330496996641159e-02 -2.4374386668205261e-01</leafValues></_>
    <_>
      <internalNodes>
        0 -1 11864 3.8510836660861969e-02</internalNodes>
      <leafValues>
        -6.4913809299468994e-02 1.6820697486400604e-01</leafValues></_>
    <_>
      <internalNodes>
        0 -1 8806 -1.8323776125907898e-01</internalNodes>
      <leafValues>
        3.2222211360931396e-01 -3.5517722368240356e-02</leafValues></_>
    <_>
      <internalNodes>
        0 -1 119035 -1.6477152705192566e-02</internalNodes>
      <leafValues>
        -3.5804310441017151e-01 3.5417627543210983e-02</leafValues></_>
    <_>
      <internalNodes>
        0 -1 162043 8.8176387362182140e-04</internalNodes>
      <leafValues>
        4.8586737364530563e-02 -2.1375477313995361e-01</leafValues></_>
    <_>
      <internalNodes>
        0 -1 76347 -5.7680830359458923e-03</internalNodes>
      <leafValues>
        1.4575353264808655e-01 -7.3380410671234131e-02</leafValues></_>
    <_>
      <internalNodes>
        0 -1 159103 -4.0695071220397949e-03</internalNodes>
      <leafValues>
        4.9045324325561523e-01 -2.2257618606090546e-02</leafValues></_>
    <_>
      <internalNodes>
        0 -1 22241 -1.8224187195301056e-02</internalNodes>
      <leafValues>
        2.2605848312377930e-01 -4.3273802846670151e-02</leafValues></_>
    <_>
      <internalNodes>
        0 -1 35581 1.0039102286100388e-02</internalNodes>
      <leafValues>
        4.7360021620988846e-02 -2.3136691749095917e-01</leafValues></_>
    <_>
      <internalNodes>
        0 -1 89824 -1.0959538631141186e-03</internalNodes>
      <leafValues>
        -2.4883446097373962e-01 4.0217503905296326e-02</leafValues></_>
    <_>
      <internalNodes>
        0 -1 68254 2.7445796877145767e-02</internalNodes>
      <leafValues>
        2.9936205595731735e-02 -3.5274571180343628e-01</leafValues></_>
    <_>
      <internalNodes>
        0 -1 89824 5.3807033691555262e-04</internalNodes>
      <leafValues>
        5.1854416728019714e-02 -1.8644738197326660e-01</leafValues></_>
    <_>
      <internalNodes>
        0 -1 151660 9.0409317635931075e-05</internalNodes>
      <leafValues>
        -9.1292455792427063e-02 1.0504299402236938e-01</leafValues></_>
    <_>
      <internalNodes>
        0 -1 151827 2.3382348445011303e-05</internalNodes>
      <leafValues>
        -9.8881229758262634e-02 1.1798063665628433e-01</leafValues></_>
    <_>
      <internalNodes>
        0 -1 22031 -4.8417416401207447e-03</internalNodes>
      <leafValues>
        1.4727190136909485e-01 -6.9037936627864838e-02</leafValues></_>
    <_>
      <internalNodes>
        0 -1 21451 -3.8086026906967163e-03</internalNodes>
      <leafValues>
        1.3190199434757233e-01 -8.3250969648361206e-02</leafValues></_>
    <_>
      <internalNodes>
        0 -1 45634 -7.0434017106890678e-03</internalNodes>
      <leafValues>
        -4.1217064857482910e-01 2.4208193644881248e-02</leafValues></_>
    <_>
      <internalNodes>
        0 -1 13330 7.2662062011659145e-03</internalNodes>
      <leafValues>
        -7.5836777687072754e-02 1.3077548146247864e-01</leafValues></_>
    <_>
      <internalNodes>
        0 -1 46670 -9.7949597984552383e-03</internalNodes>
      <leafValues>
        1.4756959676742554e-01 -7.2201728820800781e-02</leafValues></_>
    <_>
      <internalNodes>
        0 -1 10016 -5.0488850101828575e-03</internalNodes>
      <leafValues>
        -2.8381827473640442e-01 3.3424340188503265e-02</leafValues></_>
    <_>
      <internalNodes>
        0 -1 9320 -2.0214132964611053e-02</internalNodes>
      <leafValues>
        1.5069186687469482e-01 -7.3725998401641846e-02</leafValues></_>
    <_>
      <internalNodes>
        0 -1 93486 1.3678860664367676e-01</internalNodes>
      <leafValues>
        2.0219994708895683e-02 -6.7250514030456543e-01</leafValues></_>
    <_>
      <internalNodes>
        0 -1 154411 -4.6923635527491570e-03</internalNodes>
      <leafValues>
        1.3342624902725220e-01 -8.0289706587791443e-02</leafValues></_>
    <_>
      <internalNodes>
        0 -1 127992 -5.2593299187719822e-04</internalNodes>
      <leafValues>
        -1.7806014418601990e-01 5.9234768152236938e-02</leafValues></_>
    <_>
      <internalNodes>
        0 -1 149962 -1.9373703747987747e-02</internalNodes>
      <leafValues>
        2.2909148037433624e-01 -4.6573784202337265e-02</leafValues></_>
    <_>
      <internalNodes>
        0 -1 154091 -8.8829145533964038e-04</internalNodes>
      <leafValues>
        -1.7138509452342987e-01 6.5946415066719055e-02</leafValues></_>
    <_>
      <internalNodes>
        0 -1 29381 -2.8759883716702461e-02</internalNodes>
      <leafValues>
        2.7337878942489624e-01 -3.7523586302995682e-02</leafValues></_>
    <_>
      <internalNodes>
        0 -1 110102 4.7456957399845123e-03</internalNodes>
      <leafValues>
        -6.8333558738231659e-02 1.5019431710243225e-01</leafValues></_>
    <_>
      <internalNodes>
        0 -1 157449 1.0751228546723723e-03</internalNodes>
      <leafValues>
        4.8118051141500473e-02 -2.1794348955154419e-01</leafValues></_>
    <_>
      <internalNodes>
        0 -1 75001 -2.2373017854988575e-03</internalNodes>
      <leafValues>
        1.3236792385578156e-01 -8.3487018942832947e-02</leafValues></_>
    <_>
      <internalNodes>
        0 -1 75091 4.2290706187486649e-04</internalNodes>
      <leafValues>
        6.9781549274921417e-02 -1.7791050672531128e-01</leafValues></_>
    <_>
      <internalNodes>
        0 -1 106743 1.4728694804944098e-04</internalNodes>
      <leafValues>
        -8.9885354042053223e-02 1.2571185827255249e-01</leafValues></_>
    <_>
      <internalNodes>
        0 -1 98614 -1.1321922764182091e-02</internalNodes>
      <leafValues>
        5.6739687919616699e-01 -1.8544573336839676e-02</leafValues></_>
    <_>
      <internalNodes>
        0 -1 146402 -1.5146927908062935e-03</internalNodes>
      <leafValues>
        -1.6642679274082184e-01 6.3964881002902985e-02</leafValues></_>
    <_>
      <internalNodes>
        0 -1 132318 -1.3131846208125353e-03</internalNodes>
      <leafValues>
        1.6481120884418488e-01 -6.2305998057126999e-02</leafValues></_>
    <_>
      <internalNodes>
        0 -1 155315 3.2023901585489511e-03</internalNodes>
      <leafValues>
        3.4567024558782578e-02 -3.1013327836990356e-01</leafValues></_>
    <_>
      <internalNodes>
        0 -1 107250 -1.1939906328916550e-01</internalNodes>
      <leafValues>
        -6.6352766752243042e-01 1.3762166723608971e-02</leafValues></_>
    <_>
      <internalNodes>
        0 -1 125051 -2.4720462970435619e-03</internalNodes>
      <leafValues>
        2.0463538169860840e-01 -4.9400556832551956e-02</leafValues></_>
    <_>
      <internalNodes>
        0 -1 128040 -1.0560748632997274e-03</internalNodes>
      <leafValues>
        -2.3224140703678131e-01 4.1502024978399277e-02</leafValues></_>
    <_>
      <internalNodes>
        0 -1 34005 -2.5304383598268032e-03</internalNodes>
      <leafValues>
        1.2436366826295853e-01 -7.9620681703090668e-02</leafValues></_>
    <_>
      <internalNodes>
        0 -1 16460 3.8358308374881744e-03</internalNodes>
      <leafValues>
        -9.5438726246356964e-02 1.2154194712638855e-01</leafValues></_>
    <_>
      <internalNodes>
        0 -1 34499 9.5537953078746796e-02</internalNodes>
      <leafValues>
        -1.7929889261722565e-02 5.7778054475784302e-01</leafValues></_>
    <_>
      <internalNodes>
        0 -1 80705 -3.7859506905078888e-02</internalNodes>
      <leafValues>
        -8.8173252344131470e-01 1.2416041456162930e-02</leafValues></_>
    <_>
      <internalNodes>
        0 -1 143008 1.9342999905347824e-02</internalNodes>
      <leafValues>
        -6.4951300621032715e-02 1.5035061538219452e-01</leafValues></_>
    <_>
      <internalNodes>
        0 -1 94096 -5.3913793526589870e-03</internalNodes>
      <leafValues>
        1.7643105983734131e-01 -5.2702769637107849e-02</leafValues></_>
    <_>
      <internalNodes>
        0 -1 13412 -1.5318567166104913e-03</internalNodes>
      <leafValues>
        -1.7400848865509033e-01 5.8133386075496674e-02</leafValues></_>
    <_>
      <internalNodes>
        0 -1 103096 -3.2871174626052380e-03</internalNodes>
      <leafValues>
        1.4184094965457916e-01 -7.3424108326435089e-02</leafValues></_>
    <_>
      <internalNodes>
        0 -1 26302 2.8623379766941071e-02</internalNodes>
      <leafValues>
        -6.0457460582256317e-02 1.6818292438983917e-01</leafValues></_>
    <_>
      <internalNodes>
        0 -1 64886 -2.8888132423162460e-02</internalNodes>
      <leafValues>
        -3.5401797294616699e-01 3.0550742521882057e-02</leafValues></_>
    <_>
      <internalNodes>
        0 -1 6828 -9.4217639416456223e-03</internalNodes>
      <leafValues>
        -4.2966690659523010e-01 2.0006434991955757e-02</leafValues></_></weakClassifiers></stage11>
</opencv_storage>
