<?xml version="1.0"?>
<opencv_storage>
<stage3>
  <maxWeakCount>5</maxWeakCount>
  <stageThreshold>-2.8285069465637207e+00</stageThreshold>
  <weakClassifiers>
    <_>
      <internalNodes>
        0 -1 2127 -7.9438471794128418e-01</internalNodes>
      <leafValues>
        1. -9.8415029048919678e-01</leafValues></_>
    <_>
      <internalNodes>
        0 -1 71201 3.8261946290731430e-02</internalNodes>
      <leafValues>
        -9.2508226633071899e-01 -3.4277249127626419e-02</leafValues></_>
    <_>
      <internalNodes>
        0 -1 98229 -2.6136731728911400e-02</internalNodes>
      <leafValues>
        8.7548896670341492e-02 -8.2379049062728882e-01</leafValues></_>
    <_>
      <internalNodes>
        0 -1 157473 1.0128367692232132e-02</internalNodes>
      <leafValues>
        -4.7544285655021667e-01 7.6499187946319580e-01</leafValues></_>
    <_>
      <internalNodes>
        0 -1 38901 2.1798014640808105e-01</internalNodes>
      <leafValues>
        -5.3138053417205811e-01 5.7935988903045654e-01</leafValues></_></weakClassifiers></stage3>
</opencv_storage>
