<?xml version="1.0"?>
<opencv_storage>
<stage5>
  <maxWeakCount>5</maxWeakCount>
  <stageThreshold>-2.5218288898468018e+00</stageThreshold>
  <weakClassifiers>
    <_>
      <internalNodes>
        0 -1 3133 -5.0576124340295792e-03</internalNodes>
      <leafValues>
        1. -9.8415029048919678e-01</leafValues></_>
    <_>
      <internalNodes>
        0 -1 61086 4.8656299710273743e-02</internalNodes>
      <leafValues>
        -9.2442309856414795e-01 -2.1155376732349396e-01</leafValues></_>
    <_>
      <internalNodes>
        0 -1 3534 1.7962761223316193e-01</internalNodes>
      <leafValues>
        -7.4825590848922729e-01 1.3999655842781067e-01</leafValues></_>
    <_>
      <internalNodes>
        0 -1 78270 -2.9442322556860745e-04</internalNodes>
      <leafValues>
        -9.6063023805618286e-01 1.8038295209407806e-01</leafValues></_>
    <_>
      <internalNodes>
        0 -1 151873 -7.2473907493986189e-05</internalNodes>
      <leafValues>
        3.3020040392875671e-01 -7.5825178623199463e-01</leafValues></_></weakClassifiers></stage5>
</opencv_storage>
