<?xml version="1.0"?>
<opencv_storage>
<stage4>
  <maxWeakCount>5</maxWeakCount>
  <stageThreshold>-2.2519843578338623e+00</stageThreshold>
  <weakClassifiers>
    <_>
      <internalNodes>
        0 -1 2811 6.2193298339843750e-01</internalNodes>
      <leafValues>
        -9.8415029048919678e-01 1.</leafValues></_>
    <_>
      <internalNodes>
        0 -1 81273 1.8433813005685806e-02</internalNodes>
      <leafValues>
        -9.1791111230850220e-01 1.7753016948699951e-01</leafValues></_>
    <_>
      <internalNodes>
        0 -1 4394 1.5294107794761658e-01</internalNodes>
      <leafValues>
        -7.1570605039596558e-01 2.3798732459545135e-01</leafValues></_>
    <_>
      <internalNodes>
        0 -1 161148 -1.9406032151891850e-05</internalNodes>
      <leafValues>
        -9.1576671600341797e-01 1.9289138913154602e-01</leafValues></_>
    <_>
      <internalNodes>
        0 -1 52325 1.2473976239562035e-03</internalNodes>
      <leafValues>
        1.8610851466655731e-01 -1.</leafValues></_></weakClassifiers></stage4>
</opencv_storage>
