<?xml version="1.0"?>
<opencv_storage>
<stage7>
  <maxWeakCount>5</maxWeakCount>
  <stageThreshold>-3.0298569202423096e+00</stageThreshold>
  <weakClassifiers>
    <_>
      <internalNodes>
        0 -1 4521 -3.8936889171600342e-01</internalNodes>
      <leafValues>
        1. -9.8415029048919678e-01</leafValues></_>
    <_>
      <internalNodes>
        0 -1 37220 -1.2817999348044395e-02</internalNodes>
      <leafValues>
        1.9389589130878448e-01 -9.1413056850433350e-01</leafValues></_>
    <_>
      <internalNodes>
        0 -1 18090 1.6190763562917709e-02</internalNodes>
      <leafValues>
        -7.5216108560562134e-01 2.5519594550132751e-01</leafValues></_>
    <_>
      <internalNodes>
        0 -1 152063 -1.6072548925876617e-02</internalNodes>
      <leafValues>
        3.6720579862594604e-01 -6.5894931554794312e-01</leafValues></_>
    <_>
      <internalNodes>
        0 -1 84201 -9.5736715593375266e-05</internalNodes>
      <leafValues>
        -8.6167109012603760e-01 2.7953431010246277e-01</leafValues></_></weakClassifiers></stage7>
</opencv_storage>
