<?xml version="1.0"?>
<opencv_storage>
<stage3>
  <maxWeakCount>8</maxWeakCount>
  <stageThreshold>-2.2038562297821045e+00</stageThreshold>
  <weakClassifiers>
    <_>
      <internalNodes>
        0 -1 6682 -7.9984273761510849e-03</internalNodes>
      <leafValues>
        -6.0975611209869385e-01 -9.5472145080566406e-01</leafValues></_>
    <_>
      <internalNodes>
        0 -1 107235 -9.4527266919612885e-03</internalNodes>
      <leafValues>
        -2.3567030206322670e-02 -7.5358998775482178e-01</leafValues></_>
    <_>
      <internalNodes>
        0 -1 80434 -1.5900582075119019e-02</internalNodes>
      <leafValues>
        2.9534798860549927e-01 -3.9430269598960876e-01</leafValues></_>
    <_>
      <internalNodes>
        0 -1 37512 4.7922556404955685e-04</internalNodes>
      <leafValues>
        -3.4852820634841919e-01 3.0710735917091370e-01</leafValues></_>
    <_>
      <internalNodes>
        0 -1 156340 -5.1378435455262661e-03</internalNodes>
      <leafValues>
        4.4962963461875916e-01 -2.4612572789192200e-01</leafValues></_>
    <_>
      <internalNodes>
        0 -1 162119 -1.3132831081748009e-02</internalNodes>
      <leafValues>
        -5.1643621921539307e-01 1.9397728145122528e-01</leafValues></_>
    <_>
      <internalNodes>
        0 -1 84828 1.3378812000155449e-02</internalNodes>
      <leafValues>
        1.6189682483673096e-01 -7.9916769266128540e-01</leafValues></_>
    <_>
      <internalNodes>
        0 -1 128123 -3.4641947131603956e-03</internalNodes>
      <leafValues>
        7.2892552614212036e-01 -1.5264979004859924e-01</leafValues></_></weakClassifiers></stage3>
</opencv_storage>
