<?xml version="1.0"?>
<opencv_storage>
<stage4>
  <maxWeakCount>9</maxWeakCount>
  <stageThreshold>-2.4507896900177002e+00</stageThreshold>
  <weakClassifiers>
    <_>
      <internalNodes>
        0 -1 95002 2.0807546377182007e-01</internalNodes>
      <leafValues>
        -9.4530802965164185e-01 6.6666668653488159e-01</leafValues></_>
    <_>
      <internalNodes>
        0 -1 6756 3.0374966561794281e-02</internalNodes>
      <leafValues>
        -7.6292163133621216e-01 -4.5161988586187363e-02</leafValues></_>
    <_>
      <internalNodes>
        0 -1 10651 -2.1039158105850220e-02</internalNodes>
      <leafValues>
        3.9525133371353149e-01 -3.8179203867912292e-01</leafValues></_>
    <_>
      <internalNodes>
        0 -1 161429 -5.7026483118534088e-03</internalNodes>
      <leafValues>
        5.5700206756591797e-01 -1.9251354038715363e-01</leafValues></_>
    <_>
      <internalNodes>
        0 -1 18109 1.4581343857571483e-03</internalNodes>
      <leafValues>
        -3.2111030817031860e-01 2.6261416077613831e-01</leafValues></_>
    <_>
      <internalNodes>
        0 -1 143414 7.2606737376190722e-05</internalNodes>
      <leafValues>
        -3.8531118631362915e-01 2.2545444965362549e-01</leafValues></_>
    <_>
      <internalNodes>
        0 -1 37191 -6.2811537645757198e-03</internalNodes>
      <leafValues>
        -9.1901654005050659e-01 1.3540120422840118e-01</leafValues></_>
    <_>
      <internalNodes>
        0 -1 144036 -2.5796878617256880e-04</internalNodes>
      <leafValues>
        -7.0129889249801636e-01 6.5416425466537476e-02</leafValues></_>
    <_>
      <internalNodes>
        0 -1 69054 -1.3050418347120285e-02</internalNodes>
      <leafValues>
        3.1253653764724731e-01 -2.7341634035110474e-01</leafValues></_></weakClassifiers></stage4>
</opencv_storage>
