<?xml version="1.0"?>
<opencv_storage>
<stage6>
  <maxWeakCount>11</maxWeakCount>
  <stageThreshold>-2.3822710514068604e+00</stageThreshold>
  <weakClassifiers>
    <_>
      <internalNodes>
        0 -1 60281 -2.1212175488471985e-02</internalNodes>
      <leafValues>
        4.2857143282890320e-01 -9.4529223442077637e-01</leafValues></_>
    <_>
      <internalNodes>
        0 -1 161218 -1.0964019224047661e-02</internalNodes>
      <leafValues>
        -1.6922207176685333e-01 -7.4719905853271484e-01</leafValues></_>
    <_>
      <internalNodes>
        0 -1 11932 -6.5427687950432301e-03</internalNodes>
      <leafValues>
        4.3100726604461670e-01 -3.1377962231636047e-01</leafValues></_>
    <_>
      <internalNodes>
        0 -1 11490 -9.9375448189675808e-04</internalNodes>
      <leafValues>
        -5.6126821041107178e-01 1.5639036893844604e-01</leafValues></_>
    <_>
      <internalNodes>
        0 -1 5486 2.0267037674784660e-02</internalNodes>
      <leafValues>
        7.9280398786067963e-02 -9.6375739574432373e-01</leafValues></_>
    <_>
      <internalNodes>
        0 -1 40895 -2.1283835172653198e-02</internalNodes>
      <leafValues>
        4.1428977251052856e-01 -2.0023018121719360e-01</leafValues></_>
    <_>
      <internalNodes>
        0 -1 10209 -2.5374591350555420e-03</internalNodes>
      <leafValues>
        -6.3799703121185303e-01 1.2338933348655701e-01</leafValues></_>
    <_>
      <internalNodes>
        0 -1 106591 8.7574496865272522e-04</internalNodes>
      <leafValues>
        -2.1927742660045624e-01 3.9357990026473999e-01</leafValues></_>
    <_>
      <internalNodes>
        0 -1 36247 -6.3290086109191179e-04</internalNodes>
      <leafValues>
        4.5129582285881042e-01 -1.7367410659790039e-01</leafValues></_>
    <_>
      <internalNodes>
        0 -1 46695 9.7847636789083481e-04</internalNodes>
      <leafValues>
        1.6560541093349457e-01 -5.7867723703384399e-01</leafValues></_>
    <_>
      <internalNodes>
        0 -1 149699 3.8268663920462132e-03</internalNodes>
      <leafValues>
        -2.1479518711566925e-01 5.1910620927810669e-01</leafValues></_></weakClassifiers></stage6>
</opencv_storage>
