<?xml version="1.0"?>
<opencv_storage>
<stage2>
  <maxWeakCount>8</maxWeakCount>
  <stageThreshold>-2.1231679916381836e+00</stageThreshold>
  <weakClassifiers>
    <_>
      <internalNodes>
        0 -1 7498 3.0369445681571960e-02</internalNodes>
      <leafValues>
        -9.5742130279541016e-01 -6.0000002384185791e-01</leafValues></_>
    <_>
      <internalNodes>
        0 -1 158357 -3.1040221452713013e-02</internalNodes>
      <leafValues>
        -7.2889290750026703e-02 -7.7499228715896606e-01</leafValues></_>
    <_>
      <internalNodes>
        0 -1 135560 1.1486111907288432e-03</internalNodes>
      <leafValues>
        -5.0045031309127808e-01 2.0263163745403290e-01</leafValues></_>
    <_>
      <internalNodes>
        0 -1 1103 1.2081584334373474e-01</internalNodes>
      <leafValues>
        1.8649205565452576e-01 -5.9831798076629639e-01</leafValues></_>
    <_>
      <internalNodes>
        0 -1 113230 -1.2601105845533311e-04</internalNodes>
      <leafValues>
        2.4743881821632385e-01 -4.4521743059158325e-01</leafValues></_>
    <_>
      <internalNodes>
        0 -1 49563 -7.8007800038903952e-04</internalNodes>
      <leafValues>
        -5.4815793037414551e-01 2.1852973103523254e-01</leafValues></_>
    <_>
      <internalNodes>
        0 -1 100560 -3.2089967862702906e-04</internalNodes>
      <leafValues>
        -6.9333362579345703e-01 1.5501627326011658e-01</leafValues></_>
    <_>
      <internalNodes>
        0 -1 61292 1.1492508929222822e-03</internalNodes>
      <leafValues>
        -2.8851458430290222e-01 3.6025443673133850e-01</leafValues></_></weakClassifiers></stage2>
</opencv_storage>
