<?xml version="1.0"?>
<opencv_storage>
<stage1>
  <maxWeakCount>8</maxWeakCount>
  <stageThreshold>-2.6804199218750000e+00</stageThreshold>
  <weakClassifiers>
    <_>
      <internalNodes>
        0 -1 24578 -6.9113820791244507e-02</internalNodes>
      <leafValues>
        -5.0000000000000000e-01 -9.5616114139556885e-01</leafValues></_>
    <_>
      <internalNodes>
        0 -1 39257 -5.9474363923072815e-02</internalNodes>
      <leafValues>
        1.0527940094470978e-01 -7.8525125980377197e-01</leafValues></_>
    <_>
      <internalNodes>
        0 -1 127255 -2.6590742170810699e-02</internalNodes>
      <leafValues>
        3.8412937521934509e-01 -5.1309299468994141e-01</leafValues></_>
    <_>
      <internalNodes>
        0 -1 121918 -3.6651449045166373e-04</internalNodes>
      <leafValues>
        -6.5762096643447876e-01 2.2073921561241150e-01</leafValues></_>
    <_>
      <internalNodes>
        0 -1 138779 2.2626519203186035e-03</internalNodes>
      <leafValues>
        1.0361641645431519e-01 -1.</leafValues></_>
    <_>
      <internalNodes>
        0 -1 133869 -2.6879549026489258e-02</internalNodes>
      <leafValues>
        5.3001171350479126e-01 -2.6484417915344238e-01</leafValues></_>
    <_>
      <internalNodes>
        0 -1 137292 5.6406762450933456e-02</internalNodes>
      <leafValues>
        -2.2206263244152069e-01 6.6188776493072510e-01</leafValues></_>
    <_>
      <internalNodes>
        0 -1 34663 2.9444042593240738e-02</internalNodes>
      <leafValues>
        -2.6895365118980408e-01 4.6988472342491150e-01</leafValues></_></weakClassifiers></stage1>
</opencv_storage>
