<?xml version="1.0"?>
<opencv_storage>
<cascade>
  <stageType>BOOST</stageType>
  <featureType>HAAR</featureType>
  <height>24</height>
  <width>24</width>
  <stageParams>
    <boostType>GAB</boostType>
    <minHitRate>9.9900001287460327e-01</minHitRate>
    <maxFalseAlarm>5.0000000000000000e-01</maxFalseAlarm>
    <weightTrimRate>9.4999999999999996e-01</weightTrimRate>
    <maxDepth>1</maxDepth>
    <maxWeakCount>100</maxWeakCount></stageParams>
  <featureParams>
    <maxCatCount>0</maxCatCount>
    <featSize>1</featSize>
    <mode>BASIC</mode></featureParams>
  <stageNum>8</stageNum>
  <stages>
    <!-- stage 0 -->
    <_>
      <maxWeakCount>5</maxWeakCount>
      <stageThreshold>-1.7281788587570190e+00</stageThreshold>
      <weakClassifiers>
        <_>
          <internalNodes>
            0 -1 3 9.1411173343658447e-02</internalNodes>
          <leafValues>
            -8.3290708065032959e-01 6.3995355367660522e-01</leafValues></_>
        <_>
          <internalNodes>
            0 -1 6 -6.0756705701351166e-02</internalNodes>
          <leafValues>
            6.8285065889358521e-01 -7.0816689729690552e-01</leafValues></_>
        <_>
          <internalNodes>
            0 -1 14 5.1422053948044777e-03</internalNodes>
          <leafValues>
            -8.2689261436462402e-01 5.5164355039596558e-01</leafValues></_>
        <_>
          <internalNodes>
            0 -1 16 2.5611335877329111e-03</internalNodes>
          <leafValues>
            -9.8865967988967896e-01 3.3457854390144348e-01</leafValues></_>
        <_>
          <internalNodes>
            0 -1 23 6.4462814480066299e-03</internalNodes>
          <leafValues>
            3.0520915985107422e-01 -9.5778864622116089e-01</leafValues></_></weakClassifiers></_>
    <!-- stage 1 -->
    <_>
      <maxWeakCount>5</maxWeakCount>
      <stageThreshold>-2.0395040512084961e+00</stageThreshold>
      <weakClassifiers>
        <_>
          <internalNodes>
            0 -1 1 8.1471361219882965e-02</internalNodes>
          <leafValues>
            -8.1269931793212891e-01 4.5435017347335815e-01</leafValues></_>
        <_>
          <internalNodes>
            0 -1 24 -7.3980125598609447e-03</internalNodes>
          <leafValues>
            4.3625476956367493e-01 -7.9457867145538330e-01</leafValues></_>
        <_>
          <internalNodes>
            0 -1 25 1.7574380617588758e-03</internalNodes>
          <leafValues>
            -9.6145689487457275e-01 2.5090458989143372e-01</leafValues></_>
        <_>
          <internalNodes>
            0 -1 21 -5.4982956498861313e-04</internalNodes>
          <leafValues>
            -9.5437836647033691e-01 2.4421900510787964e-01</leafValues></_>
        <_>
          <internalNodes>
            0 -1 29 2.3234519176185131e-03</internalNodes>
          <leafValues>
            2.7124762535095215e-01 -9.5989727973937988e-01</leafValues></_></weakClassifiers></_>
    <!-- stage 2 -->
    <_>
      <maxWeakCount>6</maxWeakCount>
      <stageThreshold>-1.7622046470642090e+00</stageThreshold>
      <weakClassifiers>
        <_>
          <internalNodes>
            0 -1 41 -8.6333192884922028e-03</internalNodes>
          <leafValues>
            3.2376682758331299e-01 -8.3950996398925781e-01</leafValues></_>
        <_>
          <internalNodes>
            0 -1 4 2.0502462983131409e-02</internalNodes>
          <leafValues>
            -7.7013617753982544e-01 4.6187976002693176e-01</leafValues></_>
        <_>
          <internalNodes>
            0 -1 26 -9.6276547992601991e-04</internalNodes>
          <leafValues>
            -9.6713399887084961e-01 2.9150399565696716e-01</leafValues></_>
        <_>
          <internalNodes>
            0 -1 27 1.8377674277871847e-03</internalNodes>
          <leafValues>
            2.1933357417583466e-01 -9.4425314664840698e-01</leafValues></_>
        <_>
          <internalNodes>
            0 -1 12 1.7529993783682585e-03</internalNodes>
          <leafValues>
            -9.5031988620758057e-01 2.4538297951221466e-01</leafValues></_>
        <_>
          <internalNodes>
            0 -1 22 6.0665491037070751e-03</internalNodes>
          <leafValues>
            3.4985882043838501e-01 -9.6587181091308594e-01</leafValues></_></weakClassifiers></_>
    <!-- stage 3 -->
    <_>
      <maxWeakCount>5</maxWeakCount>
      <stageThreshold>-1.8625658750534058e+00</stageThreshold>
      <weakClassifiers>
        <_>
          <internalNodes>
            0 -1 42 -7.9933358356356621e-03</internalNodes>
          <leafValues>
            2.7510917186737061e-01 -8.3307576179504395e-01</leafValues></_>
        <_>
          <internalNodes>
            0 -1 5 7.9381680116057396e-03</internalNodes>
          <leafValues>
            -6.6406607627868652e-01 4.5439842343330383e-01</leafValues></_>
        <_>
          <internalNodes>
            0 -1 15 2.0168847404420376e-03</internalNodes>
          <leafValues>
            -8.9677691459655762e-01 2.9099264740943909e-01</leafValues></_>
        <_>
          <internalNodes>
            0 -1 37 1.2789460015483201e-05</internalNodes>
          <leafValues>
            2.2774137556552887e-01 -9.9018496274948120e-01</leafValues></_>
        <_>
          <internalNodes>
            0 -1 39 -3.3586933568585664e-05</internalNodes>
          <leafValues>
            -8.0457341670989990e-01 3.0831086635589600e-01</leafValues></_></weakClassifiers></_>
    <!-- stage 4 -->
    <_>
      <maxWeakCount>7</maxWeakCount>
      <stageThreshold>-1.7762192487716675e+00</stageThreshold>
      <weakClassifiers>
        <_>
          <internalNodes>
            0 -1 40 7.9967185854911804e-02</internalNodes>
          <leafValues>
            -7.5013852119445801e-01 4.2597401142120361e-01</leafValues></_>
        <_>
          <internalNodes>
            0 -1 11 -3.6678391043096781e-03</internalNodes>
          <leafValues>
            3.4064507484436035e-01 -7.3296445608139038e-01</leafValues></_>
        <_>
          <internalNodes>
            0 -1 33 1.1484264396131039e-03</internalNodes>
          <leafValues>
            -6.1804252862930298e-01 4.0473616123199463e-01</leafValues></_>
        <_>
          <internalNodes>
            0 -1 37 -1.0168868357141037e-05</internalNodes>
          <leafValues>
            -6.1154079437255859e-01 4.9131664633750916e-01</leafValues></_>
        <_>
          <internalNodes>
            0 -1 36 -2.1556738764047623e-02</internalNodes>
          <leafValues>
            5.5276381969451904e-01 -5.1236993074417114e-01</leafValues></_>
        <_>
          <internalNodes>
            0 -1 31 9.1703277576016262e-06</internalNodes>
          <leafValues>
            -9.0921163558959961e-01 2.6426258683204651e-01</leafValues></_>
        <_>
          <internalNodes>
            0 -1 8 -3.7581605283776298e-05</internalNodes>
          <leafValues>
            -9.0717649459838867e-01 2.7013608813285828e-01</leafValues></_></weakClassifiers></_>
    <!-- stage 5 -->
    <_>
      <maxWeakCount>6</maxWeakCount>
      <stageThreshold>-1.4767825603485107e+00</stageThreshold>
      <weakClassifiers>
        <_>
          <internalNodes>
            0 -1 2 7.4056841433048248e-02</internalNodes>
          <leafValues>
            -8.4172660112380981e-01 5.2703626453876495e-02</leafValues></_>
        <_>
          <internalNodes>
            0 -1 9 -3.6229260265827179e-02</internalNodes>
          <leafValues>
            4.4838675856590271e-01 -5.9090781211853027e-01</leafValues></_>
        <_>
          <internalNodes>
            0 -1 35 3.1939889595378190e-05</internalNodes>
          <leafValues>
            2.4620203673839569e-01 -9.7749549150466919e-01</leafValues></_>
        <_>
          <internalNodes>
            0 -1 34 -1.1101088603027165e-05</internalNodes>
          <leafValues>
            -7.6127821207046509e-01 4.3211340904235840e-01</leafValues></_>
        <_>
          <internalNodes>
            0 -1 13 -7.8725366620346904e-04</internalNodes>
          <leafValues>
            2.7767708897590637e-01 -7.7168422937393188e-01</leafValues></_>
        <_>
          <internalNodes>
            0 -1 30 -1.3314628631633241e-05</internalNodes>
          <leafValues>
            -7.5970274209976196e-01 3.4818199276924133e-01</leafValues></_></weakClassifiers></_>
    <!-- stage 6 -->
    <_>
      <maxWeakCount>6</maxWeakCount>
      <stageThreshold>-1.8587590456008911e+00</stageThreshold>
      <weakClassifiers>
        <_>
          <internalNodes>
            0 -1 7 4.7291848808526993e-02</internalNodes>
          <leafValues>
            -7.8060120344161987e-01 1.2055507302284241e-01</leafValues></_>
        <_>
          <internalNodes>
            0 -1 17 1.8601219926495105e-04</internalNodes>
          <leafValues>
            -9.0575712919235229e-01 1.5028718113899231e-01</leafValues></_>
        <_>
          <internalNodes>
            0 -1 32 -6.3058432715479285e-05</internalNodes>
          <leafValues>
            2.1377694606781006e-01 -9.0228760242462158e-01</leafValues></_>
        <_>
          <internalNodes>
            0 -1 28 7.6865928713232279e-04</internalNodes>
          <leafValues>
            2.3103074729442596e-01 -8.8638436794281006e-01</leafValues></_>
        <_>
          <internalNodes>
            0 -1 0 1.1367846127541270e-05</internalNodes>
          <leafValues>
            2.3771080374717712e-01 -8.8786053657531738e-01</leafValues></_>
        <_>
          <internalNodes>
            0 -1 0 -2.4372264306293800e-05</internalNodes>
          <leafValues>
            -9.6793609857559204e-01 2.7065208554267883e-01</leafValues></_></weakClassifiers></_>
    <!-- stage 7 -->
    <_>
      <maxWeakCount>5</maxWeakCount>
      <stageThreshold>-1.3310813903808594e+00</stageThreshold>
      <weakClassifiers>
        <_>
          <internalNodes>
            0 -1 38 9.0284496545791626e-02</internalNodes>
          <leafValues>
            -7.7791374921798706e-01 1.4671467244625092e-01</leafValues></_>
        <_>
          <internalNodes>
            0 -1 20 2.2144196555018425e-04</internalNodes>
          <leafValues>
            -9.4207763671875000e-01 1.8746927380561829e-01</leafValues></_>
        <_>
          <internalNodes>
            0 -1 19 3.6275761667639017e-03</internalNodes>
          <leafValues>
            1.6913253068923950e-01 -9.4425576925277710e-01</leafValues></_>
        <_>
          <internalNodes>
            0 -1 18 4.2386272980365902e-05</internalNodes>
          <leafValues>
            -9.2113023996353149e-01 2.5552698969841003e-01</leafValues></_>
        <_>
          <internalNodes>
            0 -1 10 2.8452426704461686e-05</internalNodes>
          <leafValues>
            2.1627923846244812e-01 -8.8868528604507446e-01</leafValues></_></weakClassifiers></_></stages>
  <features>
    <_>
      <rects>
        <_>
          0 0 1 2 -1.</_>
        <_>
          0 1 1 1 2.</_></rects>
      <tilted>0</tilted></_>
    <_>
      <rects>
        <_>
          0 0 3 24 -1.</_>
        <_>
          0 8 3 8 3.</_></rects>
      <tilted>0</tilted></_>
    <_>
      <rects>
        <_>
          0 0 23 6 -1.</_>
        <_>
          0 3 23 3 2.</_></rects>
      <tilted>0</tilted></_>
    <_>
      <rects>
        <_>
          0 0 24 6 -1.</_>
        <_>
          0 3 24 3 2.</_></rects>
      <tilted>0</tilted></_>
    <_>
      <rects>
        <_>
          0 1 4 20 -1.</_>
        <_>
          2 1 2 20 2.</_></rects>
      <tilted>0</tilted></_>
    <_>
      <rects>
        <_>
          0 5 2 15 -1.</_>
        <_>
          1 5 1 15 2.</_></rects>
      <tilted>0</tilted></_>
    <_>
      <rects>
        <_>
          0 18 24 6 -1.</_>
        <_>
          0 21 24 3 2.</_></rects>
      <tilted>0</tilted></_>
    <_>
      <rects>
        <_>
          2 0 20 4 -1.</_>
        <_>
          2 2 20 2 2.</_></rects>
      <tilted>0</tilted></_>
    <_>
      <rects>
        <_>
          2 6 4 1 -1.</_>
        <_>
          4 6 2 1 2.</_></rects>
      <tilted>0</tilted></_>
    <_>
      <rects>
        <_>
          2 20 20 4 -1.</_>
        <_>
          2 22 20 2 2.</_></rects>
      <tilted>0</tilted></_>
    <_>
      <rects>
        <_>
          3 7 2 2 -1.</_>
        <_>
          3 8 2 1 2.</_></rects>
      <tilted>0</tilted></_>
    <_>
      <rects>
        <_>
          3 10 6 5 -1.</_>
        <_>
          5 10 2 5 3.</_></rects>
      <tilted>0</tilted></_>
    <_>
      <rects>
        <_>
          3 12 16 3 -1.</_>
        <_>
          11 12 8 3 2.</_></rects>
      <tilted>0</tilted></_>
    <_>
      <rects>
        <_>
          4 7 4 4 -1.</_>
        <_>
          6 7 2 4 2.</_></rects>
      <tilted>0</tilted></_>
    <_>
      <rects>
        <_>
          4 7 8 6 -1.</_>
        <_>
          4 7 4 3 2.</_>
        <_>
          8 10 4 3 2.</_></rects>
      <tilted>0</tilted></_>
    <_>
      <rects>
        <_>
          4 13 12 2 -1.</_>
        <_>
          10 13 6 2 2.</_></rects>
      <tilted>0</tilted></_>
    <_>
      <rects>
        <_>
          5 11 10 3 -1.</_>
        <_>
          10 11 5 3 2.</_></rects>
      <tilted>0</tilted></_>
    <_>
      <rects>
        <_>
          5 12 14 2 -1.</_>
        <_>
          12 12 7 2 2.</_></rects>
      <tilted>0</tilted></_>
    <_>
      <rects>
        <_>
          6 9 8 8 -1.</_>
        <_>
          6 13 8 4 2.</_></rects>
      <tilted>0</tilted></_>
    <_>
      <rects>
        <_>
          6 11 5 6 -1.</_>
        <_>
          6 14 5 3 2.</_></rects>
      <tilted>0</tilted></_>
    <_>
      <rects>
        <_>
          6 11 12 3 -1.</_>
        <_>
          12 11 6 3 2.</_></rects>
      <tilted>0</tilted></_>
    <_>
      <rects>
        <_>
          6 11 12 4 -1.</_>
        <_>
          12 11 6 4 2.</_></rects>
      <tilted>0</tilted></_>
    <_>
      <rects>
        <_>
          6 12 12 2 -1.</_>
        <_>
          12 12 6 2 2.</_></rects>
      <tilted>0</tilted></_>
    <_>
      <rects>
        <_>
          6 12 14 3 -1.</_>
        <_>
          13 12 7 3 2.</_></rects>
      <tilted>0</tilted></_>
    <_>
      <rects>
        <_>
          7 4 4 6 -1.</_>
        <_>
          7 7 4 3 2.</_></rects>
      <tilted>0</tilted></_>
    <_>
      <rects>
        <_>
          9 9 4 6 -1.</_>
        <_>
          9 12 4 3 2.</_></rects>
      <tilted>0</tilted></_>
    <_>
      <rects>
        <_>
          9 9 6 8 -1.</_>
        <_>
          9 13 6 4 2.</_></rects>
      <tilted>0</tilted></_>
    <_>
      <rects>
        <_>
          9 11 9 4 -1.</_>
        <_>
          9 13 9 2 2.</_></rects>
      <tilted>0</tilted></_>
    <_>
      <rects>
        <_>
          9 13 4 2 -1.</_>
        <_>
          11 13 2 2 2.</_></rects>
      <tilted>0</tilted></_>
    <_>
      <rects>
        <_>
          10 10 4 6 -1.</_>
        <_>
          10 13 4 3 2.</_></rects>
      <tilted>0</tilted></_>
    <_>
      <rects>
        <_>
          10 21 2 2 -1.</_>
        <_>
          10 22 2 1 2.</_></rects>
      <tilted>0</tilted></_>
    <_>
      <rects>
        <_>
          11 9 1 2 -1.</_>
        <_>
          11 10 1 1 2.</_></rects>
      <tilted>0</tilted></_>
    <_>
      <rects>
        <_>
          11 10 10 4 -1.</_>
        <_>
          16 10 5 4 2.</_></rects>
      <tilted>0</tilted></_>
    <_>
      <rects>
        <_>
          14 16 3 4 -1.</_>
        <_>
          14 18 3 2 2.</_></rects>
      <tilted>0</tilted></_>
    <_>
      <rects>
        <_>
          20 0 4 1 -1.</_>
        <_>
          22 0 2 1 2.</_></rects>
      <tilted>0</tilted></_>
    <_>
      <rects>
        <_>
          20 0 4 2 -1.</_>
        <_>
          22 0 2 2 2.</_></rects>
      <tilted>0</tilted></_>
    <_>
      <rects>
        <_>
          20 3 4 20 -1.</_>
        <_>
          22 3 2 20 2.</_></rects>
      <tilted>0</tilted></_>
    <_>
      <rects>
        <_>
          20 22 4 1 -1.</_>
        <_>
          22 22 2 1 2.</_></rects>
      <tilted>0</tilted></_>
    <_>
      <rects>
        <_>
          21 0 3 24 -1.</_>
        <_>
          21 8 3 8 3.</_></rects>
      <tilted>0</tilted></_>
    <_>
      <rects>
        <_>
          21 22 2 1 -1.</_>
        <_>
          22 22 1 1 2.</_></rects>
      <tilted>0</tilted></_>
    <_>
      <rects>
        <_>
          22 0 2 24 -1.</_>
        <_>
          22 8 2 8 3.</_></rects>
      <tilted>0</tilted></_>
    <_>
      <rects>
        <_>
          22 4 2 16 -1.</_>
        <_>
          23 4 1 16 2.</_></rects>
      <tilted>0</tilted></_>
    <_>
      <rects>
        <_>
          22 6 2 14 -1.</_>
        <_>
          23 6 1 14 2.</_></rects>
      <tilted>0</tilted></_></features></cascade>
</opencv_storage>
