<?xml version="1.0"?>
<opencv_storage>
<stage0>
  <maxWeakCount>5</maxWeakCount>
  <stageThreshold>-1.7281788587570190e+00</stageThreshold>
  <weakClassifiers>
    <_>
      <internalNodes>
        0 -1 1088 9.1411173343658447e-02</internalNodes>
      <leafValues>
        -8.3290708065032959e-01 6.3995355367660522e-01</leafValues></_>
    <_>
      <internalNodes>
        0 -1 12803 -6.0756705701351166e-02</internalNodes>
      <leafValues>
        6.8285065889358521e-01 -7.0816689729690552e-01</leafValues></_>
    <_>
      <internalNodes>
        0 -1 55107 5.1422053948044777e-03</internalNodes>
      <leafValues>
        -8.2689261436462402e-01 5.5164355039596558e-01</leafValues></_>
    <_>
      <internalNodes>
        0 -1 67859 2.5611335877329111e-03</internalNodes>
      <leafValues>
        -9.8865967988967896e-01 3.3457854390144348e-01</leafValues></_>
    <_>
      <internalNodes>
        0 -1 78470 6.4462814480066299e-03</internalNodes>
      <leafValues>
        3.0520915985107422e-01 -9.5778864622116089e-01</leafValues></_></weakClassifiers></stage0>
</opencv_storage>
