<?xml version="1.0"?>
<opencv_storage>
<stage5>
  <maxWeakCount>6</maxWeakCount>
  <stageThreshold>-1.4767825603485107e+00</stageThreshold>
  <weakClassifiers>
    <_>
      <internalNodes>
        0 -1 1068 7.4056841433048248e-02</internalNodes>
      <leafValues>
        -8.4172660112380981e-01 5.2703626453876495e-02</leafValues></_>
    <_>
      <internalNodes>
        0 -1 37777 -3.6229260265827179e-02</internalNodes>
      <leafValues>
        4.4838675856590271e-01 -5.9090781211853027e-01</leafValues></_>
    <_>
      <internalNodes>
        0 -1 157684 3.1939889595378190e-05</internalNodes>
      <leafValues>
        2.4620203673839569e-01 -9.7749549150466919e-01</leafValues></_>
    <_>
      <internalNodes>
        0 -1 157680 -1.1101088603027165e-05</internalNodes>
      <leafValues>
        -7.6127821207046509e-01 4.3211340904235840e-01</leafValues></_>
    <_>
      <internalNodes>
        0 -1 54998 -7.8725366620346904e-04</internalNodes>
      <leafValues>
        2.7767708897590637e-01 -7.7168422937393188e-01</leafValues></_>
    <_>
      <internalNodes>
        0 -1 114300 -1.3314628631633241e-05</internalNodes>
      <leafValues>
        -7.5970274209976196e-01 3.4818199276924133e-01</leafValues></_></weakClassifiers></stage5>
</opencv_storage>
