<?xml version="1.0"?>
<opencv_storage>
<stage1>
  <maxWeakCount>5</maxWeakCount>
  <stageThreshold>-3.0233626365661621e+00</stageThreshold>
  <weakClassifiers>
    <_>
      <internalNodes>
        0 -1 26723 5.5660068988800049e-01</internalNodes>
      <leafValues>
        -9.8868709802627563e-01 -6.0000002384185791e-01</leafValues></_>
    <_>
      <internalNodes>
        0 -1 38783 3.6499908566474915e-01</internalNodes>
      <leafValues>
        -9.4415026903152466e-01 -1.6951471567153931e-01</leafValues></_>
    <_>
      <internalNodes>
        0 -1 139558 4.9436774104833603e-02</internalNodes>
      <leafValues>
        -7.6591455936431885e-01 3.4744596481323242e-01</leafValues></_>
    <_>
      <internalNodes>
        0 -1 154348 2.3888276889920235e-02</internalNodes>
      <leafValues>
        -6.4368873834609985e-01 5.7777088880538940e-01</leafValues></_>
    <_>
      <internalNodes>
        0 -1 152286 -7.9098856076598167e-03</internalNodes>
      <leafValues>
        4.0532577037811279e-01 -7.9428255558013916e-01</leafValues></_></weakClassifiers></stage1>
</opencv_storage>
