<?xml version="1.0"?>
<opencv_storage>
<stage8>
  <maxWeakCount>5</maxWeakCount>
  <stageThreshold>-2.4592263698577881e+00</stageThreshold>
  <weakClassifiers>
    <_>
      <internalNodes>
        0 -1 1060 -5.3358256816864014e-01</internalNodes>
      <leafValues>
        1. -9.8415029048919678e-01</leafValues></_>
    <_>
      <internalNodes>
        0 -1 161670 -1.0264685377478600e-02</internalNodes>
      <leafValues>
        -4.8164442181587219e-01 -9.3764019012451172e-01</leafValues></_>
    <_>
      <internalNodes>
        0 -1 865 -6.6786254756152630e-03</internalNodes>
      <leafValues>
        1.2584613263607025e-01 -7.2980052232742310e-01</leafValues></_>
    <_>
      <internalNodes>
        0 -1 154943 -6.6995868110097945e-05</internalNodes>
      <leafValues>
        2.0890097320079803e-01 -9.0069228410720825e-01</leafValues></_>
    <_>
      <internalNodes>
        0 -1 79343 -3.1948389369063079e-04</internalNodes>
      <leafValues>
        -8.7790375947952271e-01 2.3741035163402557e-01</leafValues></_></weakClassifiers></stage8>
</opencv_storage>
