<?xml version="1.0"?>
<opencv_storage>
<cascade>
  <stageType>BOOST</stageType>
  <featureType>HAAR</featureType>
  <height>24</height>
  <width>24</width>
  <stageParams>
    <boostType>GAB</boostType>
    <minHitRate>9.9900001287460327e-01</minHitRate>
    <maxFalseAlarm>5.0000000000000000e-01</maxFalseAlarm>
    <weightTrimRate>9.4999999999999996e-01</weightTrimRate>
    <maxDepth>1</maxDepth>
    <maxWeakCount>100</maxWeakCount></stageParams>
  <featureParams>
    <maxCatCount>0</maxCatCount>
    <featSize>1</featSize>
    <mode>ALL</mode></featureParams>
  <stageNum>8</stageNum>
  <stages>
    <!-- stage 0 -->
    <_>
      <maxWeakCount>10</maxWeakCount>
      <stageThreshold>-1.9512434005737305e+00</stageThreshold>
      <weakClassifiers>
        <_>
          <internalNodes>
            0 -1 125 1.2539697811007500e-02</internalNodes>
          <leafValues>
            -9.1618311405181885e-01 3.0434781312942505e-01</leafValues></_>
        <_>
          <internalNodes>
            0 -1 118 6.8634226918220520e-03</internalNodes>
          <leafValues>
            -6.5760403871536255e-01 7.2327870130538940e-01</leafValues></_>
        <_>
          <internalNodes>
            0 -1 69 1.8578840419650078e-02</internalNodes>
          <leafValues>
            -4.0733772516250610e-01 5.6692665815353394e-01</leafValues></_>
        <_>
          <internalNodes>
            0 -1 28 -9.0939896181225777e-03</internalNodes>
          <leafValues>
            4.0966081619262695e-01 -4.4758272171020508e-01</leafValues></_>
        <_>
          <internalNodes>
            0 -1 119 -4.3773083016276360e-03</internalNodes>
          <leafValues>
            7.0616906881332397e-01 -2.3739044368267059e-01</leafValues></_>
        <_>
          <internalNodes>
            0 -1 24 6.9411932490766048e-03</internalNodes>
          <leafValues>
            -1.7664676904678345e-01 8.3218497037887573e-01</leafValues></_>
        <_>
          <internalNodes>
            0 -1 7 7.3765963315963745e-03</internalNodes>
          <leafValues>
            -2.1395234763622284e-01 7.2135436534881592e-01</leafValues></_>
        <_>
          <internalNodes>
            0 -1 111 8.4822280332446098e-03</internalNodes>
          <leafValues>
            -2.1618695557117462e-01 6.6072046756744385e-01</leafValues></_>
        <_>
          <internalNodes>
            0 -1 80 1.3957730261608958e-03</internalNodes>
          <leafValues>
            -1.6455455124378204e-01 7.4839031696319580e-01</leafValues></_>
        <_>
          <internalNodes>
            0 -1 94 -2.7995887212455273e-03</internalNodes>
          <leafValues>
            6.2895172834396362e-01 -1.9860012829303741e-01</leafValues></_></weakClassifiers></_>
    <!-- stage 1 -->
    <_>
      <maxWeakCount>16</maxWeakCount>
      <stageThreshold>-2.4071023464202881e+00</stageThreshold>
      <weakClassifiers>
        <_>
          <internalNodes>
            0 -1 126 2.5598337873816490e-02</internalNodes>
          <leafValues>
            -9.0531027317047119e-01 2.2123894095420837e-01</leafValues></_>
        <_>
          <internalNodes>
            0 -1 36 -5.1444210112094879e-02</internalNodes>
          <leafValues>
            1.1763885617256165e-01 -6.7321324348449707e-01</leafValues></_>
        <_>
          <internalNodes>
            0 -1 49 -3.2141797244548798e-02</internalNodes>
          <leafValues>
            4.7178578376770020e-01 -2.9337638616561890e-01</leafValues></_>
        <_>
          <internalNodes>
            0 -1 108 1.5103127807378769e-02</internalNodes>
          <leafValues>
            -1.7481376230716705e-01 5.5734390020370483e-01</leafValues></_>
        <_>
          <internalNodes>
            0 -1 54 -2.2387461736798286e-02</internalNodes>
          <leafValues>
            5.5862581729888916e-01 -1.6481293737888336e-01</leafValues></_>
        <_>
          <internalNodes>
            0 -1 53 2.5933122262358665e-02</internalNodes>
          <leafValues>
            -1.6483762860298157e-01 5.0827443599700928e-01</leafValues></_>
        <_>
          <internalNodes>
            0 -1 13 -3.5052597522735596e-02</internalNodes>
          <leafValues>
            4.5498597621917725e-01 -1.5378415584564209e-01</leafValues></_>
        <_>
          <internalNodes>
            0 -1 20 5.6592755019664764e-02</internalNodes>
          <leafValues>
            -1.3188314437866211e-01 5.9485381841659546e-01</leafValues></_>
        <_>
          <internalNodes>
            0 -1 114 1.4803026802837849e-02</internalNodes>
          <leafValues>
            -8.7877564132213593e-02 7.0431929826736450e-01</leafValues></_>
        <_>
          <internalNodes>
            0 -1 115 2.4049509316682816e-02</internalNodes>
          <leafValues>
            -1.3255900144577026e-01 5.7008165121078491e-01</leafValues></_>
        <_>
          <internalNodes>
            0 -1 142 2.9962970875203609e-03</internalNodes>
          <leafValues>
            1.0607820004224777e-01 -8.0915844440460205e-01</leafValues></_>
        <_>
          <internalNodes>
            0 -1 45 -1.8070366233587265e-02</internalNodes>
          <leafValues>
            4.1236388683319092e-01 -1.5797491371631622e-01</leafValues></_>
        <_>
          <internalNodes>
            0 -1 51 1.0760655626654625e-02</internalNodes>
          <leafValues>
            -1.2582077085971832e-01 5.0917136669158936e-01</leafValues></_>
        <_>
          <internalNodes>
            0 -1 105 1.9135598093271255e-02</internalNodes>
          <leafValues>
            -8.7113052606582642e-02 7.1679008007049561e-01</leafValues></_>
        <_>
          <internalNodes>
            0 -1 11 5.0675034523010254e-02</internalNodes>
          <leafValues>
            7.9242989420890808e-02 -9.5132702589035034e-01</leafValues></_>
        <_>
          <internalNodes>
            0 -1 95 -7.5476302299648523e-04</internalNodes>
          <leafValues>
            -5.9526938199996948e-01 9.0614661574363708e-02</leafValues></_></weakClassifiers></_>
    <!-- stage 2 -->
    <_>
      <maxWeakCount>20</maxWeakCount>
      <stageThreshold>-2.5024313926696777e+00</stageThreshold>
      <weakClassifiers>
        <_>
          <internalNodes>
            0 -1 50 -4.2781002819538116e-02</internalNodes>
          <leafValues>
            -5.0499999523162842e-01 -9.1081309318542480e-01</leafValues></_>
        <_>
          <internalNodes>
            0 -1 127 1.7472583800554276e-02</internalNodes>
          <leafValues>
            -5.9783363342285156e-01 9.4706363976001740e-02</leafValues></_>
        <_>
          <internalNodes>
            0 -1 42 -2.8324417769908905e-02</internalNodes>
          <leafValues>
            2.6903969049453735e-01 -3.5099372267723083e-01</leafValues></_>
        <_>
          <internalNodes>
            0 -1 27 -5.6776501238346100e-02</internalNodes>
          <leafValues>
            3.3179432153701782e-01 -2.5816872715950012e-01</leafValues></_>
        <_>
          <internalNodes>
            0 -1 3 -2.0675410330295563e-01</internalNodes>
          <leafValues>
            -6.9667947292327881e-01 1.2569762766361237e-01</leafValues></_>
        <_>
          <internalNodes>
            0 -1 97 -2.5005242787301540e-03</internalNodes>
          <leafValues>
            5.5487811565399170e-01 -9.5031395554542542e-02</leafValues></_>
        <_>
          <internalNodes>
            0 -1 67 -1.4549067243933678e-02</internalNodes>
          <leafValues>
            5.3929686546325684e-01 -1.2805595993995667e-01</leafValues></_>
        <_>
          <internalNodes>
            0 -1 74 1.3491408899426460e-02</internalNodes>
          <leafValues>
            -1.2925137579441071e-01 5.1103299856185913e-01</leafValues></_>
        <_>
          <internalNodes>
            0 -1 120 1.0592041537165642e-02</internalNodes>
          <leafValues>
            -1.3705092668533325e-01 4.7554296255111694e-01</leafValues></_>
        <_>
          <internalNodes>
            0 -1 85 5.0247348845005035e-03</internalNodes>
          <leafValues>
            -1.3090276718139648e-01 4.7412994503974915e-01</leafValues></_>
        <_>
          <internalNodes>
            0 -1 47 -3.7655353546142578e-02</internalNodes>
          <leafValues>
            5.3262323141098022e-01 -1.1765979975461960e-01</leafValues></_>
        <_>
          <internalNodes>
            0 -1 59 4.0755450725555420e-02</internalNodes>
          <leafValues>
            -1.4105066657066345e-01 5.0421845912933350e-01</leafValues></_>
        <_>
          <internalNodes>
            0 -1 17 -2.1510511636734009e-02</internalNodes>
          <leafValues>
            3.9181229472160339e-01 -1.4386497437953949e-01</leafValues></_>
        <_>
          <internalNodes>
            0 -1 90 1.6531564295291901e-02</internalNodes>
          <leafValues>
            -1.6825543344020844e-01 3.7787711620330811e-01</leafValues></_>
        <_>
          <internalNodes>
            0 -1 144 2.1547940559685230e-03</internalNodes>
          <leafValues>
            8.8423989713191986e-02 -6.9445562362670898e-01</leafValues></_>
        <_>
          <internalNodes>
            0 -1 65 -2.2964235395193100e-03</internalNodes>
          <leafValues>
            4.6693199872970581e-01 -1.4355851709842682e-01</leafValues></_>
        <_>
          <internalNodes>
            0 -1 30 3.0908949673175812e-02</internalNodes>
          <leafValues>
            9.7671128809452057e-02 -6.4019101858139038e-01</leafValues></_>
        <_>
          <internalNodes>
            0 -1 86 7.8319506719708443e-03</internalNodes>
          <leafValues>
            -3.1977027654647827e-01 1.9106517732143402e-01</leafValues></_>
        <_>
          <internalNodes>
            0 -1 34 3.7631285376846790e-03</internalNodes>
          <leafValues>
            -1.7132255434989929e-01 3.4157615900039673e-01</leafValues></_>
        <_>
          <internalNodes>
            0 -1 68 -7.4110231362283230e-03</internalNodes>
          <leafValues>
            4.1460254788398743e-01 -1.3594296574592590e-01</leafValues></_></weakClassifiers></_>
    <!-- stage 3 -->
    <_>
      <maxWeakCount>23</maxWeakCount>
      <stageThreshold>-2.3835256099700928e+00</stageThreshold>
      <weakClassifiers>
        <_>
          <internalNodes>
            0 -1 4 2.5505021214485168e-02</internalNodes>
          <leafValues>
            -9.0562671422958374e-01 -2.5252524018287659e-01</leafValues></_>
        <_>
          <internalNodes>
            0 -1 15 -1.0254446417093277e-02</internalNodes>
          <leafValues>
            4.7189980745315552e-01 -5.5693435668945312e-01</leafValues></_>
        <_>
          <internalNodes>
            0 -1 62 -5.8361021801829338e-03</internalNodes>
          <leafValues>
            2.0829325914382935e-01 -3.1553122401237488e-01</leafValues></_>
        <_>
          <internalNodes>
            0 -1 14 6.5335452556610107e-02</internalNodes>
          <leafValues>
            1.0297624021768570e-01 -5.3382521867752075e-01</leafValues></_>
        <_>
          <internalNodes>
            0 -1 137 -1.6160916537046432e-02</internalNodes>
          <leafValues>
            5.3686219453811646e-01 -8.1276684999465942e-02</leafValues></_>
        <_>
          <internalNodes>
            0 -1 5 3.7683710455894470e-02</internalNodes>
          <leafValues>
            -9.6712402999401093e-02 5.5028229951858521e-01</leafValues></_>
        <_>
          <internalNodes>
            0 -1 122 5.0347452051937580e-03</internalNodes>
          <leafValues>
            -1.2733194231987000e-01 4.2726853489875793e-01</leafValues></_>
        <_>
          <internalNodes>
            0 -1 63 1.1470845900475979e-02</internalNodes>
          <leafValues>
            -1.4011009037494659e-01 3.5356035828590393e-01</leafValues></_>
        <_>
          <internalNodes>
            0 -1 0 -2.0434338599443436e-02</internalNodes>
          <leafValues>
            -6.1214965581893921e-01 8.1938378512859344e-02</leafValues></_>
        <_>
          <internalNodes>
            0 -1 104 1.5478281304240227e-02</internalNodes>
          <leafValues>
            -1.0653034597635269e-01 5.4120272397994995e-01</leafValues></_>
        <_>
          <internalNodes>
            0 -1 57 1.0228666476905346e-02</internalNodes>
          <leafValues>
            -1.0459867864847183e-01 4.4343030452728271e-01</leafValues></_>
        <_>
          <internalNodes>
            0 -1 12 -2.3702480830252171e-03</internalNodes>
          <leafValues>
            -7.6656574010848999e-01 6.9741018116474152e-02</leafValues></_>
        <_>
          <internalNodes>
            0 -1 31 8.7704546749591827e-03</internalNodes>
          <leafValues>
            -1.2967512011528015e-01 4.5524743199348450e-01</leafValues></_>
        <_>
          <internalNodes>
            0 -1 18 2.6726545765995979e-03</internalNodes>
          <leafValues>
            6.4127929508686066e-02 -8.5437709093093872e-01</leafValues></_>
        <_>
          <internalNodes>
            0 -1 79 -1.7437732312828302e-03</internalNodes>
          <leafValues>
            2.8064173460006714e-01 -1.9064508378505707e-01</leafValues></_>
        <_>
          <internalNodes>
            0 -1 33 5.1123507320880890e-02</internalNodes>
          <leafValues>
            -9.3092039227485657e-02 5.1845496892929077e-01</leafValues></_>
        <_>
          <internalNodes>
            0 -1 21 8.2395263016223907e-03</internalNodes>
          <leafValues>
            -1.5778395533561707e-01 3.6046093702316284e-01</leafValues></_>
        <_>
          <internalNodes>
            0 -1 77 2.8993107844144106e-03</internalNodes>
          <leafValues>
            9.4998449087142944e-02 -5.3691351413726807e-01</leafValues></_>
        <_>
          <internalNodes>
            0 -1 37 6.0600675642490387e-03</internalNodes>
          <leafValues>
            -1.3425742089748383e-01 3.9988416433334351e-01</leafValues></_>
        <_>
          <internalNodes>
            0 -1 35 6.2082782387733459e-03</internalNodes>
          <leafValues>
            1.1773213744163513e-01 -4.9175900220870972e-01</leafValues></_>
        <_>
          <internalNodes>
            0 -1 64 1.0657588019967079e-02</internalNodes>
          <leafValues>
            -1.0663164407014847e-01 4.8675373196601868e-01</leafValues></_>
        <_>
          <internalNodes>
            0 -1 107 -6.6596530377864838e-03</internalNodes>
          <leafValues>
            4.8202148079872131e-01 -1.0589242726564407e-01</leafValues></_>
        <_>
          <internalNodes>
            0 -1 109 -6.7197233438491821e-03</internalNodes>
          <leafValues>
            -7.3990678787231445e-01 7.9280681908130646e-02</leafValues></_></weakClassifiers></_>
    <!-- stage 4 -->
    <_>
      <maxWeakCount>18</maxWeakCount>
      <stageThreshold>-2.1614959239959717e+00</stageThreshold>
      <weakClassifiers>
        <_>
          <internalNodes>
            0 -1 23 -2.2519893944263458e-02</internalNodes>
          <leafValues>
            2.8888890147209167e-01 -8.9367085695266724e-01</leafValues></_>
        <_>
          <internalNodes>
            0 -1 129 2.2247411310672760e-02</internalNodes>
          <leafValues>
            -5.5679619312286377e-01 3.6965915560722351e-01</leafValues></_>
        <_>
          <internalNodes>
            0 -1 117 1.7973307520151138e-02</internalNodes>
          <leafValues>
            -1.5352398157119751e-01 6.3422650098800659e-01</leafValues></_>
        <_>
          <internalNodes>
            0 -1 32 -1.8360115587711334e-02</internalNodes>
          <leafValues>
            1.9685937464237213e-01 -2.8847360610961914e-01</leafValues></_>
        <_>
          <internalNodes>
            0 -1 52 2.1065960172563791e-03</internalNodes>
          <leafValues>
            -1.3742180168628693e-01 4.1252011060714722e-01</leafValues></_>
        <_>
          <internalNodes>
            0 -1 25 1.1590069159865379e-02</internalNodes>
          <leafValues>
            -7.8533872961997986e-02 5.9809577465057373e-01</leafValues></_>
        <_>
          <internalNodes>
            0 -1 130 -3.5256291739642620e-03</internalNodes>
          <leafValues>
            -7.2097355127334595e-01 7.7490650117397308e-02</leafValues></_>
        <_>
          <internalNodes>
            0 -1 106 1.6984596848487854e-02</internalNodes>
          <leafValues>
            -7.1041934192180634e-02 5.9730154275894165e-01</leafValues></_>
        <_>
          <internalNodes>
            0 -1 99 -2.7128798887133598e-02</internalNodes>
          <leafValues>
            -6.3018792867660522e-01 8.2857228815555573e-02</leafValues></_>
        <_>
          <internalNodes>
            0 -1 93 7.2559481486678123e-04</internalNodes>
          <leafValues>
            -1.6108842194080353e-01 2.8087383508682251e-01</leafValues></_>
        <_>
          <internalNodes>
            0 -1 123 3.5296984016895294e-02</internalNodes>
          <leafValues>
            -9.0868689119815826e-02 5.8290302753448486e-01</leafValues></_>
        <_>
          <internalNodes>
            0 -1 96 1.7029179434757680e-04</internalNodes>
          <leafValues>
            -2.6151433587074280e-01 1.9463852047920227e-01</leafValues></_>
        <_>
          <internalNodes>
            0 -1 16 7.5128842145204544e-03</internalNodes>
          <leafValues>
            1.0325978696346283e-01 -5.5010765790939331e-01</leafValues></_>
        <_>
          <internalNodes>
            0 -1 102 4.3917298316955566e-03</internalNodes>
          <leafValues>
            -1.6316615045070648e-01 3.1666573882102966e-01</leafValues></_>
        <_>
          <internalNodes>
            0 -1 83 1.2131787836551666e-02</internalNodes>
          <leafValues>
            -1.1132527887821198e-01 4.3124419450759888e-01</leafValues></_>
        <_>
          <internalNodes>
            0 -1 8 -6.7114643752574921e-02</internalNodes>
          <leafValues>
            4.1143587231636047e-01 -1.2176383286714554e-01</leafValues></_>
        <_>
          <internalNodes>
            0 -1 2 5.8322586119174957e-02</internalNodes>
          <leafValues>
            -1.0573247075080872e-01 5.0792896747589111e-01</leafValues></_>
        <_>
          <internalNodes>
            0 -1 145 -4.9987956881523132e-03</internalNodes>
          <leafValues>
            -5.1216769218444824e-01 9.8417431116104126e-02</leafValues></_></weakClassifiers></_>
    <!-- stage 5 -->
    <_>
      <maxWeakCount>23</maxWeakCount>
      <stageThreshold>-2.2634978294372559e+00</stageThreshold>
      <weakClassifiers>
        <_>
          <internalNodes>
            0 -1 22 -1.5757840126752853e-02</internalNodes>
          <leafValues>
            -2.4271844327449799e-01 -8.9587992429733276e-01</leafValues></_>
        <_>
          <internalNodes>
            0 -1 116 -1.8658276647329330e-02</internalNodes>
          <leafValues>
            4.5560279488563538e-01 -5.3295832872390747e-01</leafValues></_>
        <_>
          <internalNodes>
            0 -1 39 1.3359993696212769e-02</internalNodes>
          <leafValues>
            -2.0516708493232727e-01 3.0416741967201233e-01</leafValues></_>
        <_>
          <internalNodes>
            0 -1 55 -1.4929775148630142e-02</internalNodes>
          <leafValues>
            4.7546452283859253e-01 -1.1259024590253830e-01</leafValues></_>
        <_>
          <internalNodes>
            0 -1 66 8.2880072295665741e-03</internalNodes>
          <leafValues>
            -1.1497344076633453e-01 4.8516550660133362e-01</leafValues></_>
        <_>
          <internalNodes>
            0 -1 132 5.6232111528515816e-03</internalNodes>
          <leafValues>
            -1.6473233699798584e-01 2.7726250886917114e-01</leafValues></_>
        <_>
          <internalNodes>
            0 -1 89 3.0221701599657536e-03</internalNodes>
          <leafValues>
            8.1924207508563995e-02 -6.2015402317047119e-01</leafValues></_>
        <_>
          <internalNodes>
            0 -1 73 -6.5545118413865566e-03</internalNodes>
          <leafValues>
            4.6514755487442017e-01 -8.7726086378097534e-02</leafValues></_>
        <_>
          <internalNodes>
            0 -1 139 5.8091250248253345e-03</internalNodes>
          <leafValues>
            -1.1238967627286911e-01 4.2908659577369690e-01</leafValues></_>
        <_>
          <internalNodes>
            0 -1 88 -2.8983415104448795e-03</internalNodes>
          <leafValues>
            -7.8018045425415039e-01 6.1047032475471497e-02</leafValues></_>
        <_>
          <internalNodes>
            0 -1 98 -9.5276418142020702e-04</internalNodes>
          <leafValues>
            3.2683050632476807e-01 -1.4321786165237427e-01</leafValues></_>
        <_>
          <internalNodes>
            0 -1 98 8.9863466564565897e-04</internalNodes>
          <leafValues>
            -1.5065187215805054e-01 3.2312434911727905e-01</leafValues></_>
        <_>
          <internalNodes>
            0 -1 10 -2.2880495525896549e-03</internalNodes>
          <leafValues>
            -5.2393078804016113e-01 8.1255935132503510e-02</leafValues></_>
        <_>
          <internalNodes>
            0 -1 81 -1.3442910276353359e-03</internalNodes>
          <leafValues>
            1.6505013406276703e-01 -3.1590405106544495e-01</leafValues></_>
        <_>
          <internalNodes>
            0 -1 84 -1.2250423431396484e-02</internalNodes>
          <leafValues>
            5.2853161096572876e-01 -8.6935944855213165e-02</leafValues></_>
        <_>
          <internalNodes>
            0 -1 110 3.5943423863500357e-03</internalNodes>
          <leafValues>
            6.6175252199172974e-02 -7.7451050281524658e-01</leafValues></_>
        <_>
          <internalNodes>
            0 -1 141 -1.7348899273201823e-03</internalNodes>
          <leafValues>
            -5.6166702508926392e-01 7.0705942809581757e-02</leafValues></_>
        <_>
          <internalNodes>
            0 -1 136 3.0245753005146980e-03</internalNodes>
          <leafValues>
            8.2279928028583527e-02 -5.7680690288543701e-01</leafValues></_>
        <_>
          <internalNodes>
            0 -1 78 6.4286072738468647e-03</internalNodes>
          <leafValues>
            -1.3862778246402740e-01 3.4139582514762878e-01</leafValues></_>
        <_>
          <internalNodes>
            0 -1 76 -3.3653629943728447e-03</internalNodes>
          <leafValues>
            -6.2844926118850708e-01 7.6311439275741577e-02</leafValues></_>
        <_>
          <internalNodes>
            0 -1 46 8.9824665337800980e-03</internalNodes>
          <leafValues>
            -1.5484005212783813e-01 3.2476222515106201e-01</leafValues></_>
        <_>
          <internalNodes>
            0 -1 60 -1.8784679705277085e-03</internalNodes>
          <leafValues>
            -6.6630613803863525e-01 8.2547701895236969e-02</leafValues></_>
        <_>
          <internalNodes>
            0 -1 41 5.7715238071978092e-03</internalNodes>
          <leafValues>
            -1.3010475039482117e-01 3.7167018651962280e-01</leafValues></_></weakClassifiers></_>
    <!-- stage 6 -->
    <_>
      <maxWeakCount>17</maxWeakCount>
      <stageThreshold>-2.2994854450225830e+00</stageThreshold>
      <weakClassifiers>
        <_>
          <internalNodes>
            0 -1 44 2.0802374929189682e-02</internalNodes>
          <leafValues>
            -9.0364581346511841e-01 -3.7556561827659607e-01</leafValues></_>
        <_>
          <internalNodes>
            0 -1 75 -1.1828774586319923e-02</internalNodes>
          <leafValues>
            3.4061446785926819e-01 -5.6597661972045898e-01</leafValues></_>
        <_>
          <internalNodes>
            0 -1 58 5.6486381217837334e-03</internalNodes>
          <leafValues>
            -3.0876553058624268e-01 3.6045452952384949e-01</leafValues></_>
        <_>
          <internalNodes>
            0 -1 91 5.7557420805096626e-03</internalNodes>
          <leafValues>
            -1.5999025106430054e-01 4.6373674273490906e-01</leafValues></_>
        <_>
          <internalNodes>
            0 -1 71 9.5693524926900864e-03</internalNodes>
          <leafValues>
            -1.6154232621192932e-01 4.8333418369293213e-01</leafValues></_>
        <_>
          <internalNodes>
            0 -1 61 2.0917937159538269e-02</internalNodes>
          <leafValues>
            -9.1575212776660919e-02 6.2573152780532837e-01</leafValues></_>
        <_>
          <internalNodes>
            0 -1 100 -1.9476709421724081e-03</internalNodes>
          <leafValues>
            4.2278379201889038e-01 -1.4073276519775391e-01</leafValues></_>
        <_>
          <internalNodes>
            0 -1 48 -1.2464978732168674e-02</internalNodes>
          <leafValues>
            5.1409149169921875e-01 -1.0973242670297623e-01</leafValues></_>
        <_>
          <internalNodes>
            0 -1 38 1.9011184573173523e-02</internalNodes>
          <leafValues>
            -9.0190194547176361e-02 5.3871017694473267e-01</leafValues></_>
        <_>
          <internalNodes>
            0 -1 87 -6.2390053644776344e-03</internalNodes>
          <leafValues>
            4.4149598479270935e-01 -1.1492813378572464e-01</leafValues></_>
        <_>
          <internalNodes>
            0 -1 40 -4.5447684824466705e-03</internalNodes>
          <leafValues>
            2.7976009249687195e-01 -2.0448616147041321e-01</leafValues></_>
        <_>
          <internalNodes>
            0 -1 124 1.7583496868610382e-02</internalNodes>
          <leafValues>
            -8.5687309503555298e-02 5.7788378000259399e-01</leafValues></_>
        <_>
          <internalNodes>
            0 -1 138 -1.9833883270621300e-03</internalNodes>
          <leafValues>
            -8.4197235107421875e-01 1.1660997569561005e-01</leafValues></_>
        <_>
          <internalNodes>
            0 -1 113 7.2212992236018181e-03</internalNodes>
          <leafValues>
            -1.4709110558032990e-01 5.1851981878280640e-01</leafValues></_>
        <_>
          <internalNodes>
            0 -1 138 9.9900504574179649e-04</internalNodes>
          <leafValues>
            1.5010456740856171e-01 -4.9629524350166321e-01</leafValues></_>
        <_>
          <internalNodes>
            0 -1 56 5.5990568362176418e-03</internalNodes>
          <leafValues>
            -1.8127006292343140e-01 3.3745211362838745e-01</leafValues></_>
        <_>
          <internalNodes>
            0 -1 128 -9.0537397190928459e-03</internalNodes>
          <leafValues>
            5.0141757726669312e-01 -7.9499594867229462e-02</leafValues></_></weakClassifiers></_>
    <!-- stage 7 -->
    <_>
      <maxWeakCount>23</maxWeakCount>
      <stageThreshold>-2.2333576679229736e+00</stageThreshold>
      <weakClassifiers>
        <_>
          <internalNodes>
            0 -1 135 1.8850542604923248e-02</internalNodes>
          <leafValues>
            -8.9634829759597778e-01 -1.4893616735935211e-01</leafValues></_>
        <_>
          <internalNodes>
            0 -1 4 2.0416822284460068e-02</internalNodes>
          <leafValues>
            -5.6753307580947876e-01 6.2803976237773895e-02</leafValues></_>
        <_>
          <internalNodes>
            0 -1 82 4.8714280128479004e-02</internalNodes>
          <leafValues>
            -3.1781470775604248e-01 1.7161485552787781e-01</leafValues></_>
        <_>
          <internalNodes>
            0 -1 143 4.1358405724167824e-03</internalNodes>
          <leafValues>
            7.2077028453350067e-02 -7.6314610242843628e-01</leafValues></_>
        <_>
          <internalNodes>
            0 -1 131 3.7532411515712738e-03</internalNodes>
          <leafValues>
            1.1447151005268097e-01 -6.0556656122207642e-01</leafValues></_>
        <_>
          <internalNodes>
            0 -1 112 -6.0472139157354832e-03</internalNodes>
          <leafValues>
            -6.5154153108596802e-01 6.6253364086151123e-02</leafValues></_>
        <_>
          <internalNodes>
            0 -1 121 -5.0956644117832184e-03</internalNodes>
          <leafValues>
            3.8810890913009644e-01 -1.1610153317451477e-01</leafValues></_>
        <_>
          <internalNodes>
            0 -1 146 -1.5149821992963552e-03</internalNodes>
          <leafValues>
            -6.4824336767196655e-01 7.4764229357242584e-02</leafValues></_>
        <_>
          <internalNodes>
            0 -1 26 6.5853241831064224e-03</internalNodes>
          <leafValues>
            -1.0005185008049011e-01 5.3913938999176025e-01</leafValues></_>
        <_>
          <internalNodes>
            0 -1 9 -5.8971629478037357e-03</internalNodes>
          <leafValues>
            -5.7723093032836914e-01 9.4253972172737122e-02</leafValues></_>
        <_>
          <internalNodes>
            0 -1 6 -4.8273177817463875e-03</internalNodes>
          <leafValues>
            -7.2030568122863770e-01 5.7761259377002716e-02</leafValues></_>
        <_>
          <internalNodes>
            0 -1 19 1.3099303469061852e-03</internalNodes>
          <leafValues>
            1.3633188605308533e-01 -3.2592600584030151e-01</leafValues></_>
        <_>
          <internalNodes>
            0 -1 70 -2.1858722902834415e-03</internalNodes>
          <leafValues>
            5.3392541408538818e-01 -9.0185299515724182e-02</leafValues></_>
        <_>
          <internalNodes>
            0 -1 134 -1.6778578283265233e-03</internalNodes>
          <leafValues>
            -5.1942086219787598e-01 9.8354354500770569e-02</leafValues></_>
        <_>
          <internalNodes>
            0 -1 72 -1.2229841668158770e-03</internalNodes>
          <leafValues>
            3.5144373774528503e-01 -1.3329468667507172e-01</leafValues></_>
        <_>
          <internalNodes>
            0 -1 140 -3.4772159997373819e-03</internalNodes>
          <leafValues>
            -6.2130922079086304e-01 7.4452526867389679e-02</leafValues></_>
        <_>
          <internalNodes>
            0 -1 43 -2.5161225348711014e-03</internalNodes>
          <leafValues>
            4.2343160510063171e-01 -1.2330325692892075e-01</leafValues></_>
        <_>
          <internalNodes>
            0 -1 29 -6.7574471235275269e-02</internalNodes>
          <leafValues>
            5.5650514364242554e-01 -8.1848457455635071e-02</leafValues></_>
        <_>
          <internalNodes>
            0 -1 1 1.1216085404157639e-01</internalNodes>
          <leafValues>
            -1.7828895151615143e-01 3.0494296550750732e-01</leafValues></_>
        <_>
          <internalNodes>
            0 -1 103 1.3782850001007318e-03</internalNodes>
          <leafValues>
            -1.3910347223281860e-01 3.5790416598320007e-01</leafValues></_>
        <_>
          <internalNodes>
            0 -1 92 8.7538938969373703e-03</internalNodes>
          <leafValues>
            6.9925040006637573e-02 -7.0336073637008667e-01</leafValues></_>
        <_>
          <internalNodes>
            0 -1 101 -6.1660213395953178e-03</internalNodes>
          <leafValues>
            4.0391841530799866e-01 -1.3396586477756500e-01</leafValues></_>
        <_>
          <internalNodes>
            0 -1 133 4.5874079660279676e-05</internalNodes>
          <leafValues>
            -2.3769797384738922e-01 1.9661544263362885e-01</leafValues></_></weakClassifiers></_></stages>
  <features>
    <_>
      <rects>
        <_>
          0 0 24 1 -1.</_>
        <_>
          8 0 8 1 3.</_></rects>
      <tilted>0</tilted></_>
    <_>
      <rects>
        <_>
          0 0 24 24 -1.</_>
        <_>
          0 6 24 12 2.</_></rects>
      <tilted>0</tilted></_>
    <_>
      <rects>
        <_>
          0 1 6 20 -1.</_>
        <_>
          3 1 3 20 2.</_></rects>
      <tilted>0</tilted></_>
    <_>
      <rects>
        <_>
          0 2 21 18 -1.</_>
        <_>
          0 11 21 9 2.</_></rects>
      <tilted>0</tilted></_>
    <_>
      <rects>
        <_>
          0 10 4 9 -1.</_>
        <_>
          1 10 2 9 2.</_></rects>
      <tilted>0</tilted></_>
    <_>
      <rects>
        <_>
          0 10 6 7 -1.</_>
        <_>
          2 10 2 7 3.</_></rects>
      <tilted>0</tilted></_>
    <_>
      <rects>
        <_>
          0 10 3 3 -1.</_>
        <_>
          0 11 3 1 3.</_></rects>
      <tilted>0</tilted></_>
    <_>
      <rects>
        <_>
          0 11 4 7 -1.</_>
        <_>
          1 11 2 7 2.</_></rects>
      <tilted>0</tilted></_>
    <_>
      <rects>
        <_>
          0 11 10 9 -1.</_>
        <_>
          5 11 5 9 2.</_></rects>
      <tilted>0</tilted></_>
    <_>
      <rects>
        <_>
          0 11 6 4 -1.</_>
        <_>
          0 12 6 2 2.</_></rects>
      <tilted>0</tilted></_>
    <_>
      <rects>
        <_>
          0 12 3 2 -1.</_>
        <_>
          0 13 3 1 2.</_></rects>
      <tilted>0</tilted></_>
    <_>
      <rects>
        <_>
          0 12 9 8 -1.</_>
        <_>
          0 16 9 4 2.</_></rects>
      <tilted>0</tilted></_>
    <_>
      <rects>
        <_>
          0 15 1 3 -1.</_>
        <_>
          0 16 1 1 3.</_></rects>
      <tilted>0</tilted></_>
    <_>
      <rects>
        <_>
          1 1 21 8 -1.</_>
        <_>
          1 3 21 4 2.</_></rects>
      <tilted>0</tilted></_>
    <_>
      <rects>
        <_>
          1 7 20 14 -1.</_>
        <_>
          1 7 10 7 2.</_>
        <_>
          11 14 10 7 2.</_></rects>
      <tilted>0</tilted></_>
    <_>
      <rects>
        <_>
          1 11 2 4 -1.</_>
        <_>
          2 11 1 4 2.</_></rects>
      <tilted>0</tilted></_>
    <_>
      <rects>
        <_>
          1 11 3 4 -1.</_>
        <_>
          1 13 3 2 2.</_></rects>
      <tilted>0</tilted></_>
    <_>
      <rects>
        <_>
          1 13 12 6 -1.</_>
        <_>
          4 13 6 6 2.</_></rects>
      <tilted>0</tilted></_>
    <_>
      <rects>
        <_>
          1 18 1 3 -1.</_>
        <_>
          1 19 1 1 3.</_></rects>
      <tilted>0</tilted></_>
    <_>
      <rects>
        <_>
          1 20 4 4 -1.</_>
        <_>
          1 22 4 2 2.</_></rects>
      <tilted>0</tilted></_>
    <_>
      <rects>
        <_>
          2 0 16 6 -1.</_>
        <_>
          2 3 16 3 2.</_></rects>
      <tilted>0</tilted></_>
    <_>
      <rects>
        <_>
          2 0 17 3 -1.</_>
        <_>
          2 1 17 1 3.</_></rects>
      <tilted>0</tilted></_>
    <_>
      <rects>
        <_>
          2 10 3 3 -1.</_>
        <_>
          3 10 1 3 3.</_></rects>
      <tilted>0</tilted></_>
    <_>
      <rects>
        <_>
          2 10 3 4 -1.</_>
        <_>
          3 10 1 4 3.</_></rects>
      <tilted>0</tilted></_>
    <_>
      <rects>
        <_>
          2 10 3 6 -1.</_>
        <_>
          3 10 1 6 3.</_></rects>
      <tilted>0</tilted></_>
    <_>
      <rects>
        <_>
          2 11 3 4 -1.</_>
        <_>
          3 11 1 4 3.</_></rects>
      <tilted>0</tilted></_>
    <_>
      <rects>
        <_>
          2 13 3 2 -1.</_>
        <_>
          3 13 1 2 3.</_></rects>
      <tilted>0</tilted></_>
    <_>
      <rects>
        <_>
          2 13 20 8 -1.</_>
        <_>
          7 13 10 8 2.</_></rects>
      <tilted>0</tilted></_>
    <_>
      <rects>
        <_>
          2 18 20 2 -1.</_>
        <_>
          7 18 10 2 2.</_></rects>
      <tilted>0</tilted></_>
    <_>
      <rects>
        <_>
          3 0 11 8 -1.</_>
        <_>
          3 4 11 4 2.</_></rects>
      <tilted>0</tilted></_>
    <_>
      <rects>
        <_>
          3 3 20 2 -1.</_>
        <_>
          13 3 10 2 2.</_></rects>
      <tilted>0</tilted></_>
    <_>
      <rects>
        <_>
          3 9 3 8 -1.</_>
        <_>
          4 9 1 8 3.</_></rects>
      <tilted>0</tilted></_>
    <_>
      <rects>
        <_>
          3 18 18 4 -1.</_>
        <_>
          9 18 6 4 3.</_></rects>
      <tilted>0</tilted></_>
    <_>
      <rects>
        <_>
          4 0 12 6 -1.</_>
        <_>
          4 3 12 3 2.</_></rects>
      <tilted>0</tilted></_>
    <_>
      <rects>
        <_>
          4 6 2 11 -1.</_>
        <_>
          5 6 1 11 2.</_></rects>
      <tilted>0</tilted></_>
    <_>
      <rects>
        <_>
          4 6 5 4 -1.</_>
        <_>
          3 7 5 2 2.</_></rects>
      <tilted>1</tilted></_>
    <_>
      <rects>
        <_>
          4 7 16 9 -1.</_>
        <_>
          4 10 16 3 3.</_></rects>
      <tilted>0</tilted></_>
    <_>
      <rects>
        <_>
          4 9 3 6 -1.</_>
        <_>
          5 9 1 6 3.</_></rects>
      <tilted>0</tilted></_>
    <_>
      <rects>
        <_>
          4 14 6 3 -1.</_>
        <_>
          3 15 6 1 3.</_></rects>
      <tilted>1</tilted></_>
    <_>
      <rects>
        <_>
          4 15 5 4 -1.</_>
        <_>
          3 16 5 2 2.</_></rects>
      <tilted>1</tilted></_>
    <_>
      <rects>
        <_>
          4 18 11 4 -1.</_>
        <_>
          4 19 11 2 2.</_></rects>
      <tilted>0</tilted></_>
    <_>
      <rects>
        <_>
          5 6 3 5 -1.</_>
        <_>
          6 6 1 5 3.</_></rects>
      <tilted>0</tilted></_>
    <_>
      <rects>
        <_>
          5 7 15 9 -1.</_>
        <_>
          5 10 15 3 3.</_></rects>
      <tilted>0</tilted></_>
    <_>
      <rects>
        <_>
          5 11 3 1 -1.</_>
        <_>
          6 11 1 1 3.</_></rects>
      <tilted>0</tilted></_>
    <_>
      <rects>
        <_>
          5 17 15 4 -1.</_>
        <_>
          5 18 15 2 2.</_></rects>
      <tilted>0</tilted></_>
    <_>
      <rects>
        <_>
          5 21 12 2 -1.</_>
        <_>
          9 21 4 2 3.</_></rects>
      <tilted>0</tilted></_>
    <_>
      <rects>
        <_>
          6 0 3 15 -1.</_>
        <_>
          7 0 1 15 3.</_></rects>
      <tilted>0</tilted></_>
    <_>
      <rects>
        <_>
          6 0 9 6 -1.</_>
        <_>
          6 3 9 3 2.</_></rects>
      <tilted>0</tilted></_>
    <_>
      <rects>
        <_>
          6 3 3 5 -1.</_>
        <_>
          7 4 1 5 3.</_></rects>
      <tilted>1</tilted></_>
    <_>
      <rects>
        <_>
          6 4 12 4 -1.</_>
        <_>
          10 4 4 4 3.</_></rects>
      <tilted>0</tilted></_>
    <_>
      <rects>
        <_>
          6 6 12 3 -1.</_>
        <_>
          10 6 4 3 3.</_></rects>
      <tilted>0</tilted></_>
    <_>
      <rects>
        <_>
          6 7 3 11 -1.</_>
        <_>
          7 7 1 11 3.</_></rects>
      <tilted>0</tilted></_>
    <_>
      <rects>
        <_>
          6 8 3 1 -1.</_>
        <_>
          7 8 1 1 3.</_></rects>
      <tilted>0</tilted></_>
    <_>
      <rects>
        <_>
          6 14 4 6 -1.</_>
        <_>
          4 16 4 2 3.</_></rects>
      <tilted>1</tilted></_>
    <_>
      <rects>
        <_>
          6 17 8 6 -1.</_>
        <_>
          6 19 8 2 3.</_></rects>
      <tilted>0</tilted></_>
    <_>
      <rects>
        <_>
          6 19 9 4 -1.</_>
        <_>
          6 20 9 2 2.</_></rects>
      <tilted>0</tilted></_>
    <_>
      <rects>
        <_>
          6 19 11 3 -1.</_>
        <_>
          6 20 11 1 3.</_></rects>
      <tilted>0</tilted></_>
    <_>
      <rects>
        <_>
          6 21 12 2 -1.</_>
        <_>
          6 22 12 1 2.</_></rects>
      <tilted>0</tilted></_>
    <_>
      <rects>
        <_>
          6 21 14 3 -1.</_>
        <_>
          6 22 14 1 3.</_></rects>
      <tilted>0</tilted></_>
    <_>
      <rects>
        <_>
          7 0 14 6 -1.</_>
        <_>
          7 3 14 3 2.</_></rects>
      <tilted>0</tilted></_>
    <_>
      <rects>
        <_>
          7 1 4 1 -1.</_>
        <_>
          8 1 2 1 2.</_></rects>
      <tilted>0</tilted></_>
    <_>
      <rects>
        <_>
          7 2 3 7 -1.</_>
        <_>
          8 3 1 7 3.</_></rects>
      <tilted>1</tilted></_>
    <_>
      <rects>
        <_>
          7 4 9 2 -1.</_>
        <_>
          10 4 3 2 3.</_></rects>
      <tilted>0</tilted></_>
    <_>
      <rects>
        <_>
          7 6 17 4 -1.</_>
        <_>
          7 7 17 2 2.</_></rects>
      <tilted>0</tilted></_>
    <_>
      <rects>
        <_>
          7 8 3 3 -1.</_>
        <_>
          8 9 1 1 9.</_></rects>
      <tilted>0</tilted></_>
    <_>
      <rects>
        <_>
          7 9 3 1 -1.</_>
        <_>
          8 9 1 1 3.</_></rects>
      <tilted>0</tilted></_>
    <_>
      <rects>
        <_>
          7 19 7 4 -1.</_>
        <_>
          7 20 7 2 2.</_></rects>
      <tilted>0</tilted></_>
    <_>
      <rects>
        <_>
          8 1 2 8 -1.</_>
        <_>
          8 1 1 8 2.</_></rects>
      <tilted>1</tilted></_>
    <_>
      <rects>
        <_>
          8 1 9 3 -1.</_>
        <_>
          8 2 9 1 3.</_></rects>
      <tilted>0</tilted></_>
    <_>
      <rects>
        <_>
          8 4 8 8 -1.</_>
        <_>
          8 6 8 4 2.</_></rects>
      <tilted>0</tilted></_>
    <_>
      <rects>
        <_>
          8 5 2 2 -1.</_>
        <_>
          8 5 1 1 2.</_>
        <_>
          9 6 1 1 2.</_></rects>
      <tilted>0</tilted></_>
    <_>
      <rects>
        <_>
          8 6 11 3 -1.</_>
        <_>
          8 7 11 1 3.</_></rects>
      <tilted>0</tilted></_>
    <_>
      <rects>
        <_>
          8 7 2 2 -1.</_>
        <_>
          8 7 1 1 2.</_>
        <_>
          9 8 1 1 2.</_></rects>
      <tilted>0</tilted></_>
    <_>
      <rects>
        <_>
          8 7 8 1 -1.</_>
        <_>
          10 7 4 1 2.</_></rects>
      <tilted>0</tilted></_>
    <_>
      <rects>
        <_>
          8 20 11 4 -1.</_>
        <_>
          8 21 11 2 2.</_></rects>
      <tilted>0</tilted></_>
    <_>
      <rects>
        <_>
          8 21 10 3 -1.</_>
        <_>
          8 22 10 1 3.</_></rects>
      <tilted>0</tilted></_>
    <_>
      <rects>
        <_>
          9 0 3 2 -1.</_>
        <_>
          10 0 1 2 3.</_></rects>
      <tilted>0</tilted></_>
    <_>
      <rects>
        <_>
          9 1 4 3 -1.</_>
        <_>
          10 1 2 3 2.</_></rects>
      <tilted>0</tilted></_>
    <_>
      <rects>
        <_>
          9 2 7 3 -1.</_>
        <_>
          9 3 7 1 3.</_></rects>
      <tilted>0</tilted></_>
    <_>
      <rects>
        <_>
          9 3 2 3 -1.</_>
        <_>
          9 4 2 1 3.</_></rects>
      <tilted>0</tilted></_>
    <_>
      <rects>
        <_>
          9 6 2 2 -1.</_>
        <_>
          9 6 1 1 2.</_>
        <_>
          10 7 1 1 2.</_></rects>
      <tilted>0</tilted></_>
    <_>
      <rects>
        <_>
          9 6 12 12 -1.</_>
        <_>
          9 10 12 4 3.</_></rects>
      <tilted>0</tilted></_>
    <_>
      <rects>
        <_>
          9 9 14 15 -1.</_>
        <_>
          16 9 7 15 2.</_></rects>
      <tilted>0</tilted></_>
    <_>
      <rects>
        <_>
          9 20 9 4 -1.</_>
        <_>
          9 21 9 2 2.</_></rects>
      <tilted>0</tilted></_>
    <_>
      <rects>
        <_>
          10 1 11 2 -1.</_>
        <_>
          10 2 11 1 2.</_></rects>
      <tilted>0</tilted></_>
    <_>
      <rects>
        <_>
          10 5 4 3 -1.</_>
        <_>
          10 6 4 1 3.</_></rects>
      <tilted>0</tilted></_>
    <_>
      <rects>
        <_>
          10 10 14 7 -1.</_>
        <_>
          17 10 7 7 2.</_></rects>
      <tilted>0</tilted></_>
    <_>
      <rects>
        <_>
          10 20 13 2 -1.</_>
        <_>
          10 21 13 1 2.</_></rects>
      <tilted>0</tilted></_>
    <_>
      <rects>
        <_>
          11 0 2 2 -1.</_>
        <_>
          12 0 1 2 2.</_></rects>
      <tilted>0</tilted></_>
    <_>
      <rects>
        <_>
          11 0 2 3 -1.</_>
        <_>
          12 0 1 3 2.</_></rects>
      <tilted>0</tilted></_>
    <_>
      <rects>
        <_>
          11 5 6 8 -1.</_>
        <_>
          11 7 6 4 2.</_></rects>
      <tilted>0</tilted></_>
    <_>
      <rects>
        <_>
          11 7 5 3 -1.</_>
        <_>
          11 8 5 1 3.</_></rects>
      <tilted>0</tilted></_>
    <_>
      <rects>
        <_>
          12 9 2 11 -1.</_>
        <_>
          13 9 1 11 2.</_></rects>
      <tilted>0</tilted></_>
    <_>
      <rects>
        <_>
          12 11 3 1 -1.</_>
        <_>
          13 11 1 1 3.</_></rects>
      <tilted>0</tilted></_>
    <_>
      <rects>
        <_>
          12 19 2 4 -1.</_>
        <_>
          12 20 2 2 2.</_></rects>
      <tilted>0</tilted></_>
    <_>
      <rects>
        <_>
          13 1 2 1 -1.</_>
        <_>
          14 1 1 1 2.</_></rects>
      <tilted>0</tilted></_>
    <_>
      <rects>
        <_>
          13 4 8 2 -1.</_>
        <_>
          15 4 4 2 2.</_></rects>
      <tilted>0</tilted></_>
    <_>
      <rects>
        <_>
          13 5 1 3 -1.</_>
        <_>
          13 6 1 1 3.</_></rects>
      <tilted>0</tilted></_>
    <_>
      <rects>
        <_>
          13 6 2 2 -1.</_>
        <_>
          13 6 1 1 2.</_>
        <_>
          14 7 1 1 2.</_></rects>
      <tilted>0</tilted></_>
    <_>
      <rects>
        <_>
          14 10 2 9 -1.</_>
        <_>
          11 13 2 3 3.</_></rects>
      <tilted>1</tilted></_>
    <_>
      <rects>
        <_>
          15 8 2 4 -1.</_>
        <_>
          15 8 1 2 2.</_>
        <_>
          16 10 1 2 2.</_></rects>
      <tilted>0</tilted></_>
    <_>
      <rects>
        <_>
          16 7 3 4 -1.</_>
        <_>
          17 7 1 4 3.</_></rects>
      <tilted>0</tilted></_>
    <_>
      <rects>
        <_>
          16 7 2 8 -1.</_>
        <_>
          16 7 1 4 2.</_>
        <_>
          17 11 1 4 2.</_></rects>
      <tilted>0</tilted></_>
    <_>
      <rects>
        <_>
          16 9 3 1 -1.</_>
        <_>
          17 9 1 1 3.</_></rects>
      <tilted>0</tilted></_>
    <_>
      <rects>
        <_>
          18 7 3 9 -1.</_>
        <_>
          19 7 1 9 3.</_></rects>
      <tilted>0</tilted></_>
    <_>
      <rects>
        <_>
          18 7 3 12 -1.</_>
        <_>
          19 7 1 12 3.</_></rects>
      <tilted>0</tilted></_>
    <_>
      <rects>
        <_>
          18 8 3 8 -1.</_>
        <_>
          19 8 1 8 3.</_></rects>
      <tilted>0</tilted></_>
    <_>
      <rects>
        <_>
          18 12 3 3 -1.</_>
        <_>
          19 12 1 3 3.</_></rects>
      <tilted>0</tilted></_>
    <_>
      <rects>
        <_>
          18 14 6 4 -1.</_>
        <_>
          20 14 2 4 3.</_></rects>
      <tilted>0</tilted></_>
    <_>
      <rects>
        <_>
          18 19 3 5 -1.</_>
        <_>
          19 19 1 5 3.</_></rects>
      <tilted>0</tilted></_>
    <_>
      <rects>
        <_>
          18 22 2 2 -1.</_>
        <_>
          19 22 1 2 2.</_></rects>
      <tilted>0</tilted></_>
    <_>
      <rects>
        <_>
          19 5 5 3 -1.</_>
        <_>
          18 6 5 1 3.</_></rects>
      <tilted>1</tilted></_>
    <_>
      <rects>
        <_>
          19 7 4 4 -1.</_>
        <_>
          19 8 4 2 2.</_></rects>
      <tilted>0</tilted></_>
    <_>
      <rects>
        <_>
          19 8 2 6 -1.</_>
        <_>
          19 8 1 3 2.</_>
        <_>
          20 11 1 3 2.</_></rects>
      <tilted>0</tilted></_>
    <_>
      <rects>
        <_>
          19 9 3 7 -1.</_>
        <_>
          20 9 1 7 3.</_></rects>
      <tilted>0</tilted></_>
    <_>
      <rects>
        <_>
          19 9 4 9 -1.</_>
        <_>
          21 9 2 9 2.</_></rects>
      <tilted>0</tilted></_>
    <_>
      <rects>
        <_>
          19 10 3 4 -1.</_>
        <_>
          20 10 1 4 3.</_></rects>
      <tilted>0</tilted></_>
    <_>
      <rects>
        <_>
          19 10 3 6 -1.</_>
        <_>
          20 10 1 6 3.</_></rects>
      <tilted>0</tilted></_>
    <_>
      <rects>
        <_>
          19 11 3 3 -1.</_>
        <_>
          20 11 1 3 3.</_></rects>
      <tilted>0</tilted></_>
    <_>
      <rects>
        <_>
          19 11 4 4 -1.</_>
        <_>
          20 11 2 4 2.</_></rects>
      <tilted>0</tilted></_>
    <_>
      <rects>
        <_>
          19 11 3 11 -1.</_>
        <_>
          20 11 1 11 3.</_></rects>
      <tilted>0</tilted></_>
    <_>
      <rects>
        <_>
          19 13 3 1 -1.</_>
        <_>
          20 14 1 1 3.</_></rects>
      <tilted>1</tilted></_>
    <_>
      <rects>
        <_>
          19 15 4 2 -1.</_>
        <_>
          20 15 2 2 2.</_></rects>
      <tilted>0</tilted></_>
    <_>
      <rects>
        <_>
          20 2 4 16 -1.</_>
        <_>
          20 2 2 8 2.</_>
        <_>
          22 10 2 8 2.</_></rects>
      <tilted>0</tilted></_>
    <_>
      <rects>
        <_>
          20 4 4 3 -1.</_>
        <_>
          19 5 4 1 3.</_></rects>
      <tilted>1</tilted></_>
    <_>
      <rects>
        <_>
          20 9 3 7 -1.</_>
        <_>
          21 9 1 7 3.</_></rects>
      <tilted>0</tilted></_>
    <_>
      <rects>
        <_>
          20 10 4 8 -1.</_>
        <_>
          21 10 2 8 2.</_></rects>
      <tilted>0</tilted></_>
    <_>
      <rects>
        <_>
          20 10 4 10 -1.</_>
        <_>
          21 10 2 10 2.</_></rects>
      <tilted>0</tilted></_>
    <_>
      <rects>
        <_>
          20 11 2 10 -1.</_>
        <_>
          20 11 1 5 2.</_>
        <_>
          21 16 1 5 2.</_></rects>
      <tilted>0</tilted></_>
    <_>
      <rects>
        <_>
          20 11 4 6 -1.</_>
        <_>
          21 11 2 6 2.</_></rects>
      <tilted>0</tilted></_>
    <_>
      <rects>
        <_>
          20 12 3 2 -1.</_>
        <_>
          20 13 3 1 2.</_></rects>
      <tilted>0</tilted></_>
    <_>
      <rects>
        <_>
          20 14 4 2 -1.</_>
        <_>
          20 15 4 1 2.</_></rects>
      <tilted>0</tilted></_>
    <_>
      <rects>
        <_>
          20 16 4 2 -1.</_>
        <_>
          21 17 2 2 2.</_></rects>
      <tilted>1</tilted></_>
    <_>
      <rects>
        <_>
          20 17 1 3 -1.</_>
        <_>
          20 18 1 1 3.</_></rects>
      <tilted>0</tilted></_>
    <_>
      <rects>
        <_>
          21 0 2 2 -1.</_>
        <_>
          22 0 1 2 2.</_></rects>
      <tilted>0</tilted></_>
    <_>
      <rects>
        <_>
          21 10 2 7 -1.</_>
        <_>
          22 10 1 7 2.</_></rects>
      <tilted>0</tilted></_>
    <_>
      <rects>
        <_>
          21 11 3 3 -1.</_>
        <_>
          21 12 3 1 3.</_></rects>
      <tilted>0</tilted></_>
    <_>
      <rects>
        <_>
          21 15 2 7 -1.</_>
        <_>
          21 15 1 7 2.</_></rects>
      <tilted>1</tilted></_>
    <_>
      <rects>
        <_>
          22 0 2 1 -1.</_>
        <_>
          23 0 1 1 2.</_></rects>
      <tilted>0</tilted></_>
    <_>
      <rects>
        <_>
          22 9 1 3 -1.</_>
        <_>
          21 10 1 1 3.</_></rects>
      <tilted>1</tilted></_>
    <_>
      <rects>
        <_>
          22 9 2 3 -1.</_>
        <_>
          22 10 2 1 3.</_></rects>
      <tilted>0</tilted></_>
    <_>
      <rects>
        <_>
          22 10 1 4 -1.</_>
        <_>
          22 11 1 2 2.</_></rects>
      <tilted>0</tilted></_>
    <_>
      <rects>
        <_>
          22 12 2 3 -1.</_>
        <_>
          22 13 2 1 3.</_></rects>
      <tilted>0</tilted></_>
    <_>
      <rects>
        <_>
          22 13 2 3 -1.</_>
        <_>
          22 14 2 1 3.</_></rects>
      <tilted>0</tilted></_>
    <_>
      <rects>
        <_>
          22 18 2 2 -1.</_>
        <_>
          22 19 2 1 2.</_></rects>
      <tilted>0</tilted></_>
    <_>
      <rects>
        <_>
          22 19 2 3 -1.</_>
        <_>
          21 20 2 1 3.</_></rects>
      <tilted>1</tilted></_>
    <_>
      <rects>
        <_>
          23 22 1 2 -1.</_>
        <_>
          23 23 1 1 2.</_></rects>
      <tilted>0</tilted></_></features></cascade>
</opencv_storage>
