<?xml version="1.0"?>
<opencv_storage>
<stage3>
  <maxWeakCount>23</maxWeakCount>
  <stageThreshold>-2.3835256099700928e+00</stageThreshold>
  <weakClassifiers>
    <_>
      <internalNodes>
        0 -1 11605 2.5505021214485168e-02</internalNodes>
      <leafValues>
        -9.0562671422958374e-01 -2.5252524018287659e-01</leafValues></_>
    <_>
      <internalNodes>
        0 -1 29101 -1.0254446417093277e-02</internalNodes>
      <leafValues>
        4.7189980745315552e-01 -5.5693435668945312e-01</leafValues></_>
    <_>
      <internalNodes>
        0 -1 118436 -5.8361021801829338e-03</internalNodes>
      <leafValues>
        2.0829325914382935e-01 -3.1553122401237488e-01</leafValues></_>
    <_>
      <internalNodes>
        0 -1 26340 6.5335452556610107e-02</internalNodes>
      <leafValues>
        1.0297624021768570e-01 -5.3382521867752075e-01</leafValues></_>
    <_>
      <internalNodes>
        0 -1 258880 -1.6160916537046432e-02</internalNodes>
      <leafValues>
        5.3686219453811646e-01 -8.1276684999465942e-02</leafValues></_>
    <_>
      <internalNodes>
        0 -1 11664 3.7683710455894470e-02</internalNodes>
      <leafValues>
        -9.6712402999401093e-02 5.5028229951858521e-01</leafValues></_>
    <_>
      <internalNodes>
        0 -1 250983 5.0347452051937580e-03</internalNodes>
      <leafValues>
        -1.2733194231987000e-01 4.2726853489875793e-01</leafValues></_>
    <_>
      <internalNodes>
        0 -1 121022 1.1470845900475979e-02</internalNodes>
      <leafValues>
        -1.4011009037494659e-01 3.5356035828590393e-01</leafValues></_>
    <_>
      <internalNodes>
        0 -1 804 -2.0434338599443436e-02</internalNodes>
      <leafValues>
        -6.1214965581893921e-01 8.1938378512859344e-02</leafValues></_>
    <_>
      <internalNodes>
        0 -1 243330 1.5478281304240227e-02</internalNodes>
      <leafValues>
        -1.0653034597635269e-01 5.4120272397994995e-01</leafValues></_>
    <_>
      <internalNodes>
        0 -1 113578 1.0228666476905346e-02</internalNodes>
      <leafValues>
        -1.0459867864847183e-01 4.4343030452728271e-01</leafValues></_>
    <_>
      <internalNodes>
        0 -1 15049 -2.3702480830252171e-03</internalNodes>
      <leafValues>
        -7.6656574010848999e-01 6.9741018116474152e-02</leafValues></_>
    <_>
      <internalNodes>
        0 -1 60453 8.7704546749591827e-03</internalNodes>
      <leafValues>
        -1.2967512011528015e-01 4.5524743199348450e-01</leafValues></_>
    <_>
      <internalNodes>
        0 -1 32846 2.6726545765995979e-03</internalNodes>
      <leafValues>
        6.4127929508686066e-02 -8.5437709093093872e-01</leafValues></_>
    <_>
      <internalNodes>
        0 -1 146066 -1.7437732312828302e-03</internalNodes>
      <leafValues>
        2.8064173460006714e-01 -1.9064508378505707e-01</leafValues></_>
    <_>
      <internalNodes>
        0 -1 67777 5.1123507320880890e-02</internalNodes>
      <leafValues>
        -9.3092039227485657e-02 5.1845496892929077e-01</leafValues></_>
    <_>
      <internalNodes>
        0 -1 35081 8.2395263016223907e-03</internalNodes>
      <leafValues>
        -1.5778395533561707e-01 3.6046093702316284e-01</leafValues></_>
    <_>
      <internalNodes>
        0 -1 143837 2.8993107844144106e-03</internalNodes>
      <leafValues>
        9.4998449087142944e-02 -5.3691351413726807e-01</leafValues></_>
    <_>
      <internalNodes>
        0 -1 76717 6.0600675642490387e-03</internalNodes>
      <leafValues>
        -1.3425742089748383e-01 3.9988416433334351e-01</leafValues></_>
    <_>
      <internalNodes>
        0 -1 74268 6.2082782387733459e-03</internalNodes>
      <leafValues>
        1.1773213744163513e-01 -4.9175900220870972e-01</leafValues></_>
    <_>
      <internalNodes>
        0 -1 121882 1.0657588019967079e-02</internalNodes>
      <leafValues>
        -1.0663164407014847e-01 4.8675373196601868e-01</leafValues></_>
    <_>
      <internalNodes>
        0 -1 244994 -6.6596530377864838e-03</internalNodes>
      <leafValues>
        4.8202148079872131e-01 -1.0589242726564407e-01</leafValues></_>
    <_>
      <internalNodes>
        0 -1 246285 -6.7197233438491821e-03</internalNodes>
      <leafValues>
        -7.3990678787231445e-01 7.9280681908130646e-02</leafValues></_></weakClassifiers></stage3>
</opencv_storage>
