<?xml version="1.0"?>
<opencv_storage>
<stage11>
  <maxWeakCount>32</maxWeakCount>
  <stageThreshold>-2.2318923473358154e+00</stageThreshold>
  <weakClassifiers>
    <_>
      <internalNodes>
        0 -1 93124 -2.3034088313579559e-02</internalNodes>
      <leafValues>
        2.7272728085517883e-01 -8.8932681083679199e-01</leafValues></_>
    <_>
      <internalNodes>
        0 -1 258306 1.7302922904491425e-02</internalNodes>
      <leafValues>
        -5.2452552318572998e-01 1.8348553776741028e-01</leafValues></_>
    <_>
      <internalNodes>
        0 -1 254796 6.0188574716448784e-03</internalNodes>
      <leafValues>
        -1.9565144181251526e-01 2.5453782081604004e-01</leafValues></_>
    <_>
      <internalNodes>
        0 -1 195569 5.2972733974456787e-03</internalNodes>
      <leafValues>
        4.6832036226987839e-02 -7.8438556194305420e-01</leafValues></_>
    <_>
      <internalNodes>
        0 -1 148161 1.2612642720341682e-02</internalNodes>
      <leafValues>
        -7.7764987945556641e-02 4.4965344667434692e-01</leafValues></_>
    <_>
      <internalNodes>
        0 -1 235353 1.4664423651993275e-03</internalNodes>
      <leafValues>
        -9.7234606742858887e-02 3.4282734990119934e-01</leafValues></_>
    <_>
      <internalNodes>
        0 -1 226915 -1.3837790116667747e-02</internalNodes>
      <leafValues>
        -7.5022846460342407e-01 4.3855223804712296e-02</leafValues></_>
    <_>
      <internalNodes>
        0 -1 261547 -1.7964849248528481e-03</internalNodes>
      <leafValues>
        -4.9652236700057983e-01 7.6280795037746429e-02</leafValues></_>
    <_>
      <internalNodes>
        0 -1 188714 2.8892257250845432e-03</internalNodes>
      <leafValues>
        -8.3193033933639526e-02 4.0287187695503235e-01</leafValues></_>
    <_>
      <internalNodes>
        0 -1 255704 1.0030698962509632e-02</internalNodes>
      <leafValues>
        -9.7914524376392365e-02 3.3199217915534973e-01</leafValues></_>
    <_>
      <internalNodes>
        0 -1 97337 -8.8168680667877197e-03</internalNodes>
      <leafValues>
        -7.6446974277496338e-01 4.2860183864831924e-02</leafValues></_>
    <_>
      <internalNodes>
        0 -1 80415 -3.2680366188287735e-02</internalNodes>
      <leafValues>
        4.1424077749252319e-01 -9.4238460063934326e-02</leafValues></_>
    <_>
      <internalNodes>
        0 -1 42948 4.2991556227207184e-02</internalNodes>
      <leafValues>
        -6.4544543623924255e-02 4.8092275857925415e-01</leafValues></_>
    <_>
      <internalNodes>
        0 -1 58450 -3.0518537387251854e-02</internalNodes>
      <leafValues>
        3.6914670467376709e-01 -1.1604811996221542e-01</leafValues></_>
    <_>
      <internalNodes>
        0 -1 256199 3.5769490059465170e-03</internalNodes>
      <leafValues>
        7.2714135050773621e-02 -5.1899504661560059e-01</leafValues></_>
    <_>
      <internalNodes>
        0 -1 107512 -2.7554798871278763e-02</internalNodes>
      <leafValues>
        -7.8527992963790894e-01 3.7858925759792328e-02</leafValues></_>
    <_>
      <internalNodes>
        0 -1 115778 -1.1734193190932274e-02</internalNodes>
      <leafValues>
        3.7433069944381714e-01 -9.7069874405860901e-02</leafValues></_>
    <_>
      <internalNodes>
        0 -1 245061 4.2456740629859269e-05</internalNodes>
      <leafValues>
        -2.1034665405750275e-01 1.6810204088687897e-01</leafValues></_>
    <_>
      <internalNodes>
        0 -1 60395 1.6358459834009409e-03</internalNodes>
      <leafValues>
        -1.1230797320604324e-01 3.0011069774627686e-01</leafValues></_>
    <_>
      <internalNodes>
        0 -1 16413 2.5384742766618729e-03</internalNodes>
      <leafValues>
        3.9910454303026199e-02 -7.5359129905700684e-01</leafValues></_>
    <_>
      <internalNodes>
        0 -1 76717 1.4812276698648930e-02</internalNodes>
      <leafValues>
        -6.4623802900314331e-02 5.2851521968841553e-01</leafValues></_>
    <_>
      <internalNodes>
        0 -1 179008 -3.1491771340370178e-02</internalNodes>
      <leafValues>
        -8.2916688919067383e-01 4.5729223638772964e-02</leafValues></_>
    <_>
      <internalNodes>
        0 -1 128163 6.2252408824861050e-03</internalNodes>
      <leafValues>
        3.6912880837917328e-02 -7.6638263463973999e-01</leafValues></_>
    <_>
      <internalNodes>
        0 -1 237516 7.7443709596991539e-03</internalNodes>
      <leafValues>
        -8.7471589446067810e-02 4.3835735321044922e-01</leafValues></_>
    <_>
      <internalNodes>
        0 -1 188147 -8.1386854872107506e-03</internalNodes>
      <leafValues>
        3.1802549958229065e-01 -1.1106048524379730e-01</leafValues></_>
    <_>
      <internalNodes>
        0 -1 1433 1.7781227827072144e-02</internalNodes>
      <leafValues>
        -1.4185987412929535e-01 2.5838980078697205e-01</leafValues></_>
    <_>
      <internalNodes>
        0 -1 172296 -7.7826669439673424e-03</internalNodes>
      <leafValues>
        -5.8752375841140747e-01 6.5601505339145660e-02</leafValues></_>
    <_>
      <internalNodes>
        0 -1 66683 2.4536459241062403e-03</internalNodes>
      <leafValues>
        4.3144859373569489e-02 -6.5212523937225342e-01</leafValues></_>
    <_>
      <internalNodes>
        0 -1 66038 -6.3436669297516346e-03</internalNodes>
      <leafValues>
        -5.4889243841171265e-01 5.9331946074962616e-02</leafValues></_>
    <_>
      <internalNodes>
        0 -1 18673 -5.4965510964393616e-02</internalNodes>
      <leafValues>
        3.5497954487800598e-01 -1.0519542545080185e-01</leafValues></_>
    <_>
      <internalNodes>
        0 -1 73492 -4.0286503732204437e-02</internalNodes>
      <leafValues>
        -6.8380939960479736e-01 5.8832205832004547e-02</leafValues></_>
    <_>
      <internalNodes>
        0 -1 87185 -2.4279598146677017e-02</internalNodes>
      <leafValues>
        -4.8849025368690491e-01 6.8490132689476013e-02</leafValues></_></weakClassifiers></stage11>
</opencv_storage>
