<?xml version="1.0"?>
<opencv_storage>
<stage12>
  <maxWeakCount>25</maxWeakCount>
  <stageThreshold>-1.9746650457382202e+00</stageThreshold>
  <weakClassifiers>
    <_>
      <internalNodes>
        0 -1 230367 2.2120723500847816e-02</internalNodes>
      <leafValues>
        -8.8988798856735229e-01 2.3076923191547394e-01</leafValues></_>
    <_>
      <internalNodes>
        0 -1 21406 -1.8082898110151291e-02</internalNodes>
      <leafValues>
        1.5408568084239960e-01 -5.3043568134307861e-01</leafValues></_>
    <_>
      <internalNodes>
        0 -1 65666 1.1891844682395458e-02</internalNodes>
      <leafValues>
        -1.6231285035610199e-01 3.0512422323226929e-01</leafValues></_>
    <_>
      <internalNodes>
        0 -1 260893 -3.1254858186002821e-05</internalNodes>
      <leafValues>
        1.7834384739398956e-01 -2.0160970091819763e-01</leafValues></_>
    <_>
      <internalNodes>
        0 -1 121068 2.9486734420061111e-03</internalNodes>
      <leafValues>
        -1.2539564073085785e-01 2.7260670065879822e-01</leafValues></_>
    <_>
      <internalNodes>
        0 -1 145914 1.4123395085334778e-01</internalNodes>
      <leafValues>
        3.5323102027177811e-02 -9.3389254808425903e-01</leafValues></_>
    <_>
      <internalNodes>
        0 -1 68917 6.1570007354021072e-02</internalNodes>
      <leafValues>
        5.3089689463376999e-02 -6.7539334297180176e-01</leafValues></_>
    <_>
      <internalNodes>
        0 -1 116825 -1.1748408526182175e-01</internalNodes>
      <leafValues>
        -7.8230863809585571e-01 5.9840366244316101e-02</leafValues></_>
    <_>
      <internalNodes>
        0 -1 255105 1.1861016973853111e-02</internalNodes>
      <leafValues>
        -1.1540161818265915e-01 2.9822909832000732e-01</leafValues></_>
    <_>
      <internalNodes>
        0 -1 142554 -4.8742387443780899e-03</internalNodes>
      <leafValues>
        3.2175350189208984e-01 -1.1053841561079025e-01</leafValues></_>
    <_>
      <internalNodes>
        0 -1 127923 8.1337457522749901e-03</internalNodes>
      <leafValues>
        -1.4827939867973328e-01 2.7182367444038391e-01</leafValues></_>
    <_>
      <internalNodes>
        0 -1 214625 -2.1809567697346210e-03</internalNodes>
      <leafValues>
        -4.7421365976333618e-01 6.8689547479152679e-02</leafValues></_>
    <_>
      <internalNodes>
        0 -1 76350 1.0768653824925423e-02</internalNodes>
      <leafValues>
        6.7582353949546814e-02 -5.6285923719406128e-01</leafValues></_>
    <_>
      <internalNodes>
        0 -1 54482 3.8607581518590450e-03</internalNodes>
      <leafValues>
        -8.9346393942832947e-02 4.3062171339988708e-01</leafValues></_>
    <_>
      <internalNodes>
        0 -1 217218 4.7249803319573402e-03</internalNodes>
      <leafValues>
        -9.4429023563861847e-02 3.6286392807960510e-01</leafValues></_>
    <_>
      <internalNodes>
        0 -1 238097 -7.0480834692716599e-03</internalNodes>
      <leafValues>
        -7.9093080759048462e-01 4.9446236342191696e-02</leafValues></_>
    <_>
      <internalNodes>
        0 -1 180226 6.9365156814455986e-03</internalNodes>
      <leafValues>
        4.2235817760229111e-02 -6.8002724647521973e-01</leafValues></_>
    <_>
      <internalNodes>
        0 -1 227060 2.3387605324387550e-02</internalNodes>
      <leafValues>
        -1.6515660285949707e-01 2.0726257562637329e-01</leafValues></_>
    <_>
      <internalNodes>
        0 -1 81949 1.1083379387855530e-02</internalNodes>
      <leafValues>
        4.3138664215803146e-02 -7.8011000156402588e-01</leafValues></_>
    <_>
      <internalNodes>
        0 -1 229006 -9.2933478299528360e-04</internalNodes>
      <leafValues>
        2.6528981328010559e-01 -1.3578182458877563e-01</leafValues></_>
    <_>
      <internalNodes>
        0 -1 227452 6.2871444970369339e-03</internalNodes>
      <leafValues>
        -1.0944470763206482e-01 3.1444579362869263e-01</leafValues></_>
    <_>
      <internalNodes>
        0 -1 206053 -5.1646512001752853e-03</internalNodes>
      <leafValues>
        -5.9336584806442261e-01 6.0574304312467575e-02</leafValues></_>
    <_>
      <internalNodes>
        0 -1 156887 -2.0487539470195770e-02</internalNodes>
      <leafValues>
        4.4059276580810547e-01 -8.8360458612442017e-02</leafValues></_>
    <_>
      <internalNodes>
        0 -1 194387 -1.0251333937048912e-02</internalNodes>
      <leafValues>
        -6.3066542148590088e-01 5.8815851807594299e-02</leafValues></_>
    <_>
      <internalNodes>
        0 -1 206943 8.1514418125152588e-03</internalNodes>
      <leafValues>
        -1.2425138056278229e-01 3.4262469410896301e-01</leafValues></_></weakClassifiers></stage12>
</opencv_storage>
