<?xml version="1.0"?>
<opencv_storage>
<stage8>
  <maxWeakCount>23</maxWeakCount>
  <stageThreshold>-2.2078824043273926e+00</stageThreshold>
  <weakClassifiers>
    <_>
      <internalNodes>
        0 -1 161581 2.2228438407182693e-02</internalNodes>
      <leafValues>
        -8.9861154556274414e-01 -4.0350878238677979e-01</leafValues></_>
    <_>
      <internalNodes>
        0 -1 5498 -3.0377417802810669e-02</internalNodes>
      <leafValues>
        2.0471431314945221e-01 -5.4979598522186279e-01</leafValues></_>
    <_>
      <internalNodes>
        0 -1 255391 5.8095725253224373e-03</internalNodes>
      <leafValues>
        -2.1008245646953583e-01 2.6556915044784546e-01</leafValues></_>
    <_>
      <internalNodes>
        0 -1 204367 -1.8357093213126063e-03</internalNodes>
      <leafValues>
        -5.5823528766632080e-01 7.0133417844772339e-02</leafValues></_>
    <_>
      <internalNodes>
        0 -1 204365 9.6673460211604834e-04</internalNodes>
      <leafValues>
        1.4305111765861511e-01 -4.2881929874420166e-01</leafValues></_>
    <_>
      <internalNodes>
        0 -1 255366 -4.8105795867741108e-03</internalNodes>
      <leafValues>
        4.3750318884849548e-01 -1.1691747605800629e-01</leafValues></_>
    <_>
      <internalNodes>
        0 -1 31587 4.3870639055967331e-03</internalNodes>
      <leafValues>
        -1.2140203267335892e-01 3.6160060763359070e-01</leafValues></_>
    <_>
      <internalNodes>
        0 -1 162317 -2.7506463229656219e-03</internalNodes>
      <leafValues>
        2.2316063940525055e-01 -1.6558606922626495e-01</leafValues></_>
    <_>
      <internalNodes>
        0 -1 134948 1.1314898729324341e-02</internalNodes>
      <leafValues>
        -1.5190359950065613e-01 3.3586847782135010e-01</leafValues></_>
    <_>
      <internalNodes>
        0 -1 119471 -3.2011535018682480e-02</internalNodes>
      <leafValues>
        3.8476318120956421e-01 -1.3230994343757629e-01</leafValues></_>
    <_>
      <internalNodes>
        0 -1 76089 -5.5478520691394806e-02</internalNodes>
      <leafValues>
        -8.7989264726638794e-01 4.9085151404142380e-02</leafValues></_>
    <_>
      <internalNodes>
        0 -1 98380 3.4880075603723526e-02</internalNodes>
      <leafValues>
        2.3533588275313377e-02 -9.8652225732803345e-01</leafValues></_>
    <_>
      <internalNodes>
        0 -1 83913 -2.8551137074828148e-02</internalNodes>
      <leafValues>
        4.7610664367675781e-01 -8.9259810745716095e-02</leafValues></_>
    <_>
      <internalNodes>
        0 -1 227946 1.7914446070790291e-03</internalNodes>
      <leafValues>
        -8.8354639708995819e-02 4.3405476212501526e-01</leafValues></_>
    <_>
      <internalNodes>
        0 -1 128100 1.2190253473818302e-02</internalNodes>
      <leafValues>
        -6.1130672693252563e-02 6.0463881492614746e-01</leafValues></_>
    <_>
      <internalNodes>
        0 -1 15051 2.1342295221984386e-03</internalNodes>
      <leafValues>
        8.3309926092624664e-02 -5.5477476119995117e-01</leafValues></_>
    <_>
      <internalNodes>
        0 -1 245238 1.8417672254145145e-03</internalNodes>
      <leafValues>
        -1.3588313758373260e-01 3.3478456735610962e-01</leafValues></_>
    <_>
      <internalNodes>
        0 -1 260718 -2.0869574509561062e-03</internalNodes>
      <leafValues>
        -4.4845187664031982e-01 9.6276365220546722e-02</leafValues></_>
    <_>
      <internalNodes>
        0 -1 8735 -9.2678965302184224e-04</internalNodes>
      <leafValues>
        -4.7960621118545532e-01 8.6097918450832367e-02</leafValues></_>
    <_>
      <internalNodes>
        0 -1 66044 -6.9972323253750801e-03</internalNodes>
      <leafValues>
        -7.1070861816406250e-01 5.2730925381183624e-02</leafValues></_>
    <_>
      <internalNodes>
        0 -1 159218 -6.2119392678141594e-03</internalNodes>
      <leafValues>
        3.2520604133605957e-01 -1.3126829266548157e-01</leafValues></_>
    <_>
      <internalNodes>
        0 -1 251764 1.2002331204712391e-03</internalNodes>
      <leafValues>
        1.2488398700952530e-01 -3.3806306123733521e-01</leafValues></_>
    <_>
      <internalNodes>
        0 -1 221136 -5.1294420845806599e-03</internalNodes>
      <leafValues>
        4.0680548548698425e-01 -1.0930404067039490e-01</leafValues></_></weakClassifiers></stage8>
</opencv_storage>
