<?xml version="1.0"?>
<opencv_storage>
<stage4>
  <maxWeakCount>7</maxWeakCount>
  <stageThreshold>-1.7762192487716675e+00</stageThreshold>
  <weakClassifiers>
    <_>
      <internalNodes>
        0 -1 161255 7.9967185854911804e-02</internalNodes>
      <leafValues>
        -7.5013852119445801e-01 4.2597401142120361e-01</leafValues></_>
    <_>
      <internalNodes>
        0 -1 45610 -3.6678391043096781e-03</internalNodes>
      <leafValues>
        3.4064507484436035e-01 -7.3296445608139038e-01</leafValues></_>
    <_>
      <internalNodes>
        0 -1 138676 1.1484264396131039e-03</internalNodes>
      <leafValues>
        -6.1804252862930298e-01 4.0473616123199463e-01</leafValues></_>
    <_>
      <internalNodes>
        0 -1 159723 -1.0168868357141037e-05</internalNodes>
      <leafValues>
        -6.1154079437255859e-01 4.9131664633750916e-01</leafValues></_>
    <_>
      <internalNodes>
        0 -1 158214 -2.1556738764047623e-02</internalNodes>
      <leafValues>
        5.5276381969451904e-01 -5.1236993074417114e-01</leafValues></_>
    <_>
      <internalNodes>
        0 -1 118626 9.1703277576016262e-06</internalNodes>
      <leafValues>
        -9.0921163558959961e-01 2.6426258683204651e-01</leafValues></_>
    <_>
      <internalNodes>
        0 -1 31167 -3.7581605283776298e-05</internalNodes>
      <leafValues>
        -9.0717649459838867e-01 2.7013608813285828e-01</leafValues></_></weakClassifiers></stage4>
</opencv_storage>
