<?xml version="1.0"?>
<opencv_storage>
<stage6>
  <maxWeakCount>6</maxWeakCount>
  <stageThreshold>-1.8587590456008911e+00</stageThreshold>
  <weakClassifiers>
    <_>
      <internalNodes>
        0 -1 26750 4.7291848808526993e-02</internalNodes>
      <leafValues>
        -7.8060120344161987e-01 1.2055507302284241e-01</leafValues></_>
    <_>
      <internalNodes>
        0 -1 68364 1.8601219926495105e-04</internalNodes>
      <leafValues>
        -9.0575712919235229e-01 1.5028718113899231e-01</leafValues></_>
    <_>
      <internalNodes>
        0 -1 119169 -6.3058432715479285e-05</internalNodes>
      <leafValues>
        2.1377694606781006e-01 -9.0228760242462158e-01</leafValues></_>
    <_>
      <internalNodes>
        0 -1 105118 7.6865928713232279e-04</internalNodes>
      <leafValues>
        2.3103074729442596e-01 -8.8638436794281006e-01</leafValues></_>
    <_>
      <internalNodes>
        0 -1 1 1.1367846127541270e-05</internalNodes>
      <leafValues>
        2.3771080374717712e-01 -8.8786053657531738e-01</leafValues></_>
    <_>
      <internalNodes>
        0 -1 1 -2.4372264306293800e-05</internalNodes>
      <leafValues>
        -9.6793609857559204e-01 2.7065208554267883e-01</leafValues></_></weakClassifiers></stage6>
</opencv_storage>
