<?xml version="1.0"?>
<opencv_storage>
<stage3>
  <maxWeakCount>5</maxWeakCount>
  <stageThreshold>-1.8625658750534058e+00</stageThreshold>
  <weakClassifiers>
    <_>
      <internalNodes>
        0 -1 161621 -7.9933358356356621e-03</internalNodes>
      <leafValues>
        2.7510917186737061e-01 -8.3307576179504395e-01</leafValues></_>
    <_>
      <internalNodes>
        0 -1 5036 7.9381680116057396e-03</internalNodes>
      <leafValues>
        -6.6406607627868652e-01 4.5439842343330383e-01</leafValues></_>
    <_>
      <internalNodes>
        0 -1 58300 2.0168847404420376e-03</internalNodes>
      <leafValues>
        -8.9677691459655762e-01 2.9099264740943909e-01</leafValues></_>
    <_>
      <internalNodes>
        0 -1 159723 1.2789460015483201e-05</internalNodes>
      <leafValues>
        2.2774137556552887e-01 -9.9018496274948120e-01</leafValues></_>
    <_>
      <internalNodes>
        0 -1 161174 -3.3586933568585664e-05</internalNodes>
      <leafValues>
        -8.0457341670989990e-01 3.0831086635589600e-01</leafValues></_></weakClassifiers></stage3>
</opencv_storage>
